{"learner":{"attributes":{"scikit_learn":"{\"_estimator_type\": \"classifier\"}"},"feature_names":[],"feature_types":[],"gradient_booster":{"model":{"gbtree_model_param":{"num_parallel_tree":"1","num_trees":"100"},"iteration_indptr":[0,1,2,3,4,5,6,7,8,9,10,11,12,13,14,15,16,17,18,19,20,21,22,23,24,25,26,27,28,29,30,31,32,33,34,35,36,37,38,39,40,41,42,43,44,45,46,47,48,49,50,51,52,53,54,55,56,57,58,59,60,61,62,63,64,65,66,67,68,69,70,71,72,73,74,75,76,77,78,79,80,81,82,83,84,85,86,87,88,89,90,91,92,93,94,95,96,97,98,99,100],"tree_info":[0,0,0,0,0,0,0,0,0,0,0,0,0,0,0,0,0,0,0,0,0,0,0,0,0,0,0,0,0,0,0,0,0,0,0,0,0,0,0,0,0,0,0,0,0,0,0,0,0,0,0,0,0,0,0,0,0,0,0,0,0,0,0,0,0,0,0,0,0,0,0,0,0,0,0,0,0,0,0,0,0,0,0,0,0,0,0,0,0,0,0,0,0,0,0,0,0,0,0,0],"trees":[{"base_weights":[-9.2279613E-1,-9.59297E-1,6.6120565E-1,-1.030256E0,-5.855324E-1,1.3077664E-2,1.7010034E0,-1.0709882E-1,-8.544721E-2,-7.532946E-2,-2.3607446E-2,-2.1933882E-2,1.7262271E-1,1.4809157E-1,3.6837715E-1],"categories":[],"categories_nodes":[],"categories_segments":[],"categories_sizes":[],"default_left":[0,0,0,0,0,0,0,0,0,0,0,0,0,0,0],"id":0,"left_children":[1,3,5,7,9,11,13,-1,-1,-1,-1,-1,-1,-1,-1],"loss_changes":[1.1812695E3,5.2878906E2,3.1034692E2,1.1919141E2,1.8667224E2,1.1374037E2,7.171051E1,0E0,0E0,0E0,0E0,0E0,0E0,0E0,0E0],"parents":[2147483647,0,0,1,1,2,2,3,3,4,4,5,5,6,6],"right_children":[2,4,6,8,10,12,14,-1,-1,-1,-1,-1,-1,-1,-1],"split_conditions":[3.1E1,6.648456E-1,6.576719E-1,1.8E1,1.8E1,4.3E1,4.8E1,-1.0709882E-1,-8.544721E-2,-7.532946E-2,-2.3607446E-2,-2.1933882E-2,1.7262271E-1,1.4809157E-1,3.6837715E-1],"split_indices":[0,1,1,0,0,0,0,0,0,0,0,0,0,0,0],"split_type":[0,0,0,0,0,0,0,0,0,0,0,0,0,0,0],"sum_hessian":[2.0419031E4,1.995949E4,4.5954163E2,1.6773326E4,3.1861628E3,2.837111E2,1.7583055E2,1.3613708E4,3.1596182E3,2.151939E3,1.0342239E3,2.5058688E2,3.3124207E1,1.5983563E2,1.5994907E1],"tree_param":{"num_deleted":"0","num_feature":"2","num_nodes":"15","size_leaf_vector":"1"}},{"base_weights":[-8.9358294E-1,-9.382393E-1,3.7101075E-1,-1.0331445E0,-6.555132E-1,-8.016018E-2,1.381936E0,-1.06504954E-1,-8.86431E-2,-7.734948E-2,-2.7812019E-2,-2.8083703E-2,1.05494164E-1,1.0340239E-1,2.1339011E-1],"categories":[],"categories_nodes":[],"categories_segments":[],"categories_sizes":[],"default_left":[0,0,0,0,0,0,0,0,0,0,0,0,0,0,0],"id":1,"left_children":[1,3,5,7,9,11,13,-1,-1,-1,-1,-1,-1,-1,-1],"loss_changes":[1.0766787E3,4.932959E2,2.9694293E2,6.356543E1,2.0591162E2,1.03012085E2,5.0347015E1,0E0,0E0,0E0,0E0,0E0,0E0,0E0,0E0],"parents":[2147483647,0,0,1,1,2,2,3,3,4,4,5,5,6,6],"right_children":[2,4,6,8,10,12,14,-1,-1,-1,-1,-1,-1,-1,-1],"split_conditions":[2.9E1,6.2643594E-1,6.785526E-1,1.8E1,1.9E1,4E1,7.4681026E-1,-1.06504954E-1,-8.86431E-2,-7.734948E-2,-2.7812019E-2,-2.8083703E-2,1.05494164E-1,1.0340239E-1,2.1339011E-1],"split_indices":[0,1,1,0,0,0,1,0,0,0,0,0,0,0,0],"split_type":[0,0,0,0,0,0,0,0,0,0,0,0,0,0,0],"sum_hessian":[1.9058525E4,1.840872E4,6.4980493E2,1.3780305E4,4.6284165E3,4.4992593E2,1.9987901E2,1.1313714E4,2.4665906E3,3.525284E3,1.1031323E3,3.8297214E2,6.6953804E1,1.3827727E2,6.1601738E1],"tree_param":{"num_deleted":"0","num_feature":"2","num_nodes":"15","size_leaf_vector":"1"}},{"base_weights":[-8.650756E-1,-9.155677E-1,2.3337339E-1,-1.0133289E0,-6.3196915E-1,-3.506652E-1,8.46799E-1,-1.05044715E-1,-8.828944E-2,-7.584666E-2,-3.2341037E-2,-5.116995E-2,8.198029E-2,5.15158E-2,1.434109E-1],"categories":[],"categories_nodes":[],"categories_segments":[],"categories_sizes":[],"default_left":[0,0,0,0,0,0,0,0,0,0,0,0,0,0,0],"id":2,"left_children":[1,3,5,7,9,11,13,-1,-1,-1,-1,-1,-1,-1,-1],"loss_changes":[9.8714355E2,4.7103223E2,2.8074612E2,6.0314453E1,1.7008252E2,7.613648E1,7.368277E1,0E0,0E0,0E0,0E0,0E0,0E0,0E0,0E0],"parents":[2147483647,0,0,1,1,2,2,3,3,4,4,5,5,6,6],"right_children":[2,4,6,8,10,12,14,-1,-1,-1,-1,-1,-1,-1,-1],"split_conditions":[2.8E1,6.2643594E-1,6.23152E-1,1.7E1,1.8E1,4E1,3.6E1,-1.05044715E-1,-8.828944E-2,-7.584666E-2,-3.2341037E-2,-5.116995E-2,8.198029E-2,5.15158E-2,1.434109E-1],"split_indices":[0,1,1,0,0,0,0,0,0,0,0,0,0,0,0],"split_type":[0,0,0,0,0,0,0,0,0,0,0,0,0,0,0],"sum_hessian":[1.779337E4,1.7011568E4,7.818E2,1.2648754E4,4.362815E3,4.0071252E2,3.810875E2,9.841171E3,2.807584E3,3.0932444E3,1.2695704E3,3.527444E2,4.796814E1,2.4475623E2,1.3633125E2],"tree_param":{"num_deleted":"0","num_feature":"2","num_nodes":"15","size_leaf_vector":"1"}},{"base_weights":[-8.370653E-1,-8.9350384E-1,1.2878275E-1,-9.949828E-1,-6.059111E-1,-2.1499373E-1,8.658295E-1,-1.0322163E-1,-8.625073E-2,-7.2665714E-2,-3.0783413E-2,-3.736643E-2,6.108752E-2,5.5368986E-2,1.291835E-1],"categories":[],"categories_nodes":[],"categories_segments":[],"categories_sizes":[],"default_left":[0,0,0,0,0,0,0,0,0,0,0,0,0,0,0],"id":3,"left_children":[1,3,5,7,9,11,13,-1,-1,-1,-1,-1,-1,-1,-1],"loss_changes":[9.061699E2,4.5771094E2,2.3291895E2,5.6359375E1,1.4728845E2,8.241265E1,3.815947E1,0E0,0E0,0E0,0E0,0E0,0E0,0E0,0E0],"parents":[2147483647,0,0,1,1,2,2,3,3,4,4,5,5,6,6],"right_children":[2,4,6,8,10,12,14,-1,-1,-1,-1,-1,-1,-1,-1],"split_conditions":[2.7E1,6.2643594E-1,6.785526E-1,1.7E1,1.8E1,3.8E1,3.5E1,-1.0322163E-1,-8.625073E-2,-7.2665714E-2,-3.0783413E-2,-3.736643E-2,6.108752E-2,5.5368986E-2,1.291835E-1],"split_indices":[0,1,1,0,0,0,0,0,0,0,0,0,0,0,0],"split_type":[0,0,0,0,0,0,0,0,0,0,0,0,0,0,0],"sum_hessian":[1.662048E4,1.5702964E4,9.1751526E2,1.1605449E4,4.097515E3,6.26165E2,2.9135025E2,9.053952E3,2.5514968E3,2.9151846E3,1.1823307E3,5.2571014E2,1.00454834E2,1.6947409E2,1.2187615E2],"tree_param":{"num_deleted":"0","num_feature":"2","num_nodes":"15","size_leaf_vector":"1"}},{"base_weights":[-8.093586E-1,-8.729418E-1,4.7727924E-2,-9.773443E-1,-5.8477557E-1,-4.538164E-1,4.638439E-1,-1.0147967E-1,-8.407363E-2,-7.1466714E-2,-3.420334E-2,-5.1677298E-2,8.698823E-2,2.3320893E-2,1.0237356E-1],"categories":[],"categories_nodes":[],"categories_segments":[],"categories_sizes":[],"default_left":[0,0,0,0,0,0,0,0,0,0,0,0,0,0,0],"id":4,"left_children":[1,3,5,7,9,11,13,-1,-1,-1,-1,-1,-1,-1,-1],"loss_changes":[8.4675195E2,4.3458398E2,2.2434767E2,5.3461914E1,1.2112048E2,4.1075455E1,7.5621216E1,0E0,0E0,0E0,0E0,0E0,0E0,0E0,0E0],"parents":[2147483647,0,0,1,1,2,2,3,3,4,4,5,5,6,6],"right_children":[2,4,6,8,10,12,14,-1,-1,-1,-1,-1,-1,-1,-1],"split_conditions":[2.6E1,6.2643594E-1,6.059361E-1,1.7E1,1.7E1,4.4E1,3.6E1,-1.0147967E-1,-8.407363E-2,-7.1466714E-2,-3.420334E-2,-5.1677298E-2,8.698823E-2,2.3320893E-2,1.0237356E-1],"split_indices":[0,1,1,0,0,0,0,0,0,0,0,0,0,0,0],"split_type":[0,0,0,0,0,0,0,0,0,0,0,0,0,0,0],"sum_hessian":[1.553604E4,1.4463075E4,1.0729651E3,1.0614906E4,3.8481692E3,4.8649832E2,5.8646674E2,8.325862E3,2.2890435E3,2.5055193E3,1.3426499E3,4.649924E2,2.1505945E1,4.163692E2,1.7009752E2],"tree_param":{"num_deleted":"0","num_feature":"2","num_nodes":"15","size_leaf_vector":"1"}},{"base_weights":[-7.817954E-1,-8.530413E-1,-2.025426E-2,-9.356621E-1,-4.7630757E-1,-5.701618E-1,3.024336E-1,-9.9496E-2,-7.753512E-2,-6.252282E-2,-2.9408643E-2,-7.074573E-2,-1.4762645E-2,2.2533904E-3,6.996571E-2],"categories":[],"categories_nodes":[],"categories_segments":[],"categories_sizes":[],"default_left":[0,0,0,0,0,0,0,0,0,0,0,0,0,0,0],"id":5,"left_children":[1,3,5,7,9,11,13,-1,-1,-1,-1,-1,-1,-1,-1],"loss_changes":[7.887412E2,4.133369E2,2.2104723E2,1.0286133E2,6.475635E1,2.6618835E1,8.727123E1,0E0,0E0,0E0,0E0,0E0,0E0,0E0,0E0],"parents":[2147483647,0,0,1,1,2,2,3,3,4,4,5,5,6,6],"right_children":[2,4,6,8,10,12,14,-1,-1,-1,-1,-1,-1,-1,-1],"split_conditions":[2.5E1,6.6294587E-1,5.75137E-1,5.7370555E-1,1.6E1,3.3E1,3.2E1,-9.9496E-2,-7.753512E-2,-6.252282E-2,-2.9408643E-2,-7.074573E-2,-1.4762645E-2,2.2533904E-3,6.996571E-2],"split_indices":[0,1,1,1,0,0,0,0,0,0,0,0,0,0,0],"split_type":[0,0,0,0,0,0,0,0,0,0,0,0,0,0,0],"sum_hessian":[1.45365205E4,1.3292795E4,1.2437262E3,1.0900699E4,2.3920952E3,4.5964932E2,7.840769E2,7.953534E3,2.9471653E3,1.3149874E3,1.0771077E3,3.464139E2,1.1323542E2,4.6058606E2,3.2349084E2],"tree_param":{"num_deleted":"0","num_feature":"2","num_nodes":"15","size_leaf_vector":"1"}},{"base_weights":[-7.5424683E-1,-8.496653E-1,-1.7372327E-1,-9.388622E-1,-5.158161E-1,-5.647829E-1,1.5783931E-1,-9.846203E-2,-7.721877E-2,-6.301119E-2,-3.332243E-2,-6.604777E-2,-4.737107E-3,-2.5526104E-3,6.6622205E-2],"categories":[],"categories_nodes":[],"categories_segments":[],"categories_sizes":[],"default_left":[0,0,0,0,0,0,0,0,0,0,0,0,0,0,0],"id":6,"left_children":[1,3,5,7,9,11,13,-1,-1,-1,-1,-1,-1,-1,-1],"loss_changes":[7.542412E2,3.478086E2,2.4952483E2,6.962598E1,5.1302063E1,4.3684326E1,9.7138626E1,0E0,0E0,0E0,0E0,0E0,0E0,0E0,0E0],"parents":[2147483647,0,0,1,1,2,2,3,3,4,4,5,5,6,6],"right_children":[2,4,6,8,10,12,14,-1,-1,-1,-1,-1,-1,-1,-1],"split_conditions":[2.2E1,6.490704E-1,6.0282713E-1,5.810028E-1,1.6E1,3.3E1,3.3E1,-9.846203E-2,-7.721877E-2,-6.301119E-2,-3.332243E-2,-6.604777E-2,-4.737107E-3,-2.5526104E-3,6.6622205E-2],"split_indices":[0,1,1,1,0,0,0,0,0,0,0,0,0,0,0],"split_type":[0,0,0,0,0,0,0,0,0,0,0,0,0,0,0],"sum_hessian":[1.36179375E4,1.1695182E4,1.9227562E3,9.227887E3,2.4672947E3,8.819003E2,1.040856E3,7.2363447E3,1.9915419E3,1.5159281E3,9.513666E2,7.440184E2,1.3788193E2,7.656486E2,2.7520728E2],"tree_param":{"num_deleted":"0","num_feature":"2","num_nodes":"15","size_leaf_vector":"1"}},{"base_weights":[-7.266983E-1,-9.0324455E-1,-4.0367278E-1,-9.5405066E-1,-5.4460853E-1,-5.3164816E-1,2.9123363E-1,-9.996156E-2,-8.521236E-2,-6.313308E-2,-5.949615E-4,-6.4995006E-2,-3.0611692E-2,1.7312296E-2,9.556676E-2],"categories":[],"categories_nodes":[],"categories_segments":[],"categories_sizes":[],"default_left":[0,0,0,0,0,0,0,0,0,0,0,0,0,0,0],"id":7,"left_children":[1,3,5,7,9,11,13,-1,-1,-1,-1,-1,-1,-1,-1],"loss_changes":[7.28187E2,1.4997949E2,4.0180933E2,3.2742188E1,4.798233E1,1.01572876E2,5.5007866E1,0E0,0E0,0E0,0E0,0E0,0E0,0E0,0E0],"parents":[2147483647,0,0,1,1,2,2,3,3,4,4,5,5,6,6],"right_children":[2,4,6,8,10,12,14,-1,-1,-1,-1,-1,-1,-1,-1],"split_conditions":[6.075577E-1,2.1E1,2.5E1,5.2652055E-1,3.3E1,1.7E1,7.519084E-1,-9.996156E-2,-8.521236E-2,-6.313308E-2,-5.949615E-4,-6.4995006E-2,-3.0611692E-2,1.7312296E-2,9.556676E-2],"split_indices":[1,0,0,1,0,0,1,0,0,0,0,0,0,0,0],"split_type":[0,0,0,0,0,0,0,0,0,0,0,0,0,0,0],"sum_hessian":[1.2774133E4,8.258654E3,4.515479E3,7.232415E3,1.0262389E3,3.8134255E3,7.0205316E2,4.9920103E3,2.2404048E3,8.837811E2,1.424578E2,2.5001147E3,1.3133108E3,5.971615E2,1.0489168E2],"tree_param":{"num_deleted":"0","num_feature":"2","num_nodes":"15","size_leaf_vector":"1"}},{"base_weights":[-6.990464E-1,-9.0925777E-1,-4.1764128E-1,-9.490764E-1,-4.9212974E-1,-5.6736445E-1,1.01492934E-1,-9.844658E-2,-8.3493136E-2,-6.019589E-2,-4.174508E-3,-6.886069E-2,-3.5555456E-2,-1.36950165E-2,3.6489144E-2],"categories":[],"categories_nodes":[],"categories_segments":[],"categories_sizes":[],"default_left":[0,0,0,0,0,0,0,0,0,0,0,0,0,0,0],"id":8,"left_children":[1,3,5,7,9,11,13,-1,-1,-1,-1,-1,-1,-1,-1],"loss_changes":[7.096001E2,1.1362744E2,3.9909436E2,2.4504395E1,2.968721E1,1.020863E2,7.228009E1,0E0,0E0,0E0,0E0,0E0,0E0,0E0,0E0],"parents":[2147483647,0,0,1,1,2,2,3,3,4,4,5,5,6,6],"right_children":[2,4,6,8,10,12,14,-1,-1,-1,-1,-1,-1,-1,-1],"split_conditions":[5.8231854E-1,2.3E1,2.2E1,1.6E1,3.3E1,6.8035775E-1,2.8E1,-9.844658E-2,-8.3493136E-2,-6.019589E-2,-4.174508E-3,-6.886069E-2,-3.5555456E-2,-1.36950165E-2,3.6489144E-2],"split_indices":[1,0,0,0,0,1,0,0,0,0,0,0,0,0,0],"split_type":[0,0,0,0,0,0,0,0,0,0,0,0,0,0,0],"sum_hessian":[1.2001121E4,6.868258E3,5.1328633E3,6.2685884E3,5.996693E2,3.983804E3,1.1490594E3,4.779222E3,1.4893665E3,4.8183438E2,1.17834915E2,2.5321318E3,1.4516721E3,6.033517E2,5.457077E2],"tree_param":{"num_deleted":"0","num_feature":"2","num_nodes":"15","size_leaf_vector":"1"}},{"base_weights":[-6.7131376E-1,-8.9017427E-1,-3.9086962E-1,-9.327033E-1,-4.6300066E-1,-5.663011E-1,2.2658223E-2,-9.708407E-2,-8.114045E-2,-5.717953E-2,-3.772692E-3,-6.81689E-2,-3.643992E-2,-1.5891103E-2,3.2082237E-2],"categories":[],"categories_nodes":[],"categories_segments":[],"categories_sizes":[],"default_left":[0,0,0,0,0,0,0,0,0,0,0,0,0,0,0],"id":9,"left_children":[1,3,5,7,9,11,13,-1,-1,-1,-1,-1,-1,-1,-1],"loss_changes":[6.929048E2,1.1480664E2,3.5930536E2,2.5894531E1,2.6643509E1,8.076575E1,7.996795E1,0E0,0E0,0E0,0E0,0E0,0E0,0E0,0E0],"parents":[2147483647,0,0,1,1,2,2,3,3,4,4,5,5,6,6],"right_children":[2,4,6,8,10,12,14,-1,-1,-1,-1,-1,-1,-1,-1],"split_conditions":[5.8231854E-1,2.3E1,2E1,1.6E1,3.3E1,6.8035775E-1,2.8E1,-9.708407E-2,-8.114045E-2,-5.717953E-2,-3.772692E-3,-6.81689E-2,-3.643992E-2,-1.5891103E-2,3.2082237E-2],"split_indices":[1,0,0,0,0,1,0,0,0,0,0,0,0,0,0],"split_type":[0,0,0,0,0,0,0,0,0,0,0,0,0,0,0],"sum_hessian":[1.1293784E4,6.3421514E3,4.951633E3,5.766827E3,5.753241E2,3.476446E3,1.4751868E3,4.3820654E3,1.3847615E3,4.578509E2,1.1747318E2,2.2106643E3,1.2657819E3,9.171491E2,5.5803766E2],"tree_param":{"num_deleted":"0","num_feature":"2","num_nodes":"15","size_leaf_vector":"1"}},{"base_weights":[-6.435202E-1,-8.761129E-1,-3.7076885E-1,-9.272926E-1,-5.2878606E-1,-5.881065E-1,-4.2811636E-2,-9.836932E-2,-8.4578395E-2,-5.4918386E-2,1.0984653E-1,-6.842584E-2,-3.451946E-2,-1.5644822E-2,3.804643E-2],"categories":[],"categories_nodes":[],"categories_segments":[],"categories_sizes":[],"default_left":[0,0,0,0,0,0,0,0,0,0,0,0,0,0,0],"id":10,"left_children":[1,3,5,7,9,11,13,-1,-1,-1,-1,-1,-1,-1,-1],"loss_changes":[6.7518066E2,1.0165723E2,3.4942114E2,2.2185547E1,2.5176208E1,6.863037E1,9.409968E1,0E0,0E0,0E0,0E0,0E0,0E0,0E0,0E0],"parents":[2147483647,0,0,1,1,2,2,3,3,4,4,5,5,6,6],"right_children":[2,4,6,8,10,12,14,-1,-1,-1,-1,-1,-1,-1,-1],"split_conditions":[5.780308E-1,2.1E1,1.8E1,4.845872E-1,4.7E1,6.8964964E-1,3.1E1,-9.836932E-2,-8.4578395E-2,-5.4918386E-2,1.0984653E-1,-6.842584E-2,-3.451946E-2,-1.5644822E-2,3.804643E-2],"split_indices":[1,0,0,1,0,1,0,0,0,0,0,0,0,0,0],"split_type":[0,0,0,0,0,0,0,0,0,0,0,0,0,0,0],"sum_hessian":[1.0646946E4,5.7453247E3,4.9016216E3,5.0060044E3,7.3932043E2,2.9475098E3,1.9541118E3,2.9521602E3,2.0538442E3,7.3082196E2,8.49842E0,2.110352E3,8.3715784E2,1.5410245E3,4.130873E2],"tree_param":{"num_deleted":"0","num_feature":"2","num_nodes":"15","size_leaf_vector":"1"}},{"base_weights":[-6.1568326E-1,-8.565619E-1,-3.4583953E-1,-9.022683E-1,-4.284429E-1,-5.587765E-1,-3.8890753E-2,-9.5102236E-2,-7.916006E-2,-4.4928376E-2,1.3509806E-1,-6.560224E-2,-3.2049336E-2,-1.5997482E-2,2.9031968E-2],"categories":[],"categories_nodes":[],"categories_segments":[],"categories_sizes":[],"default_left":[0,0,0,0,0,0,0,0,0,0,0,0,0,0,0],"id":11,"left_children":[1,3,5,7,9,11,13,-1,-1,-1,-1,-1,-1,-1,-1],"loss_changes":[6.534099E2,1.0357837E2,3.10117E2,2.514331E1,1.9683868E1,6.4705505E1,7.756093E1,0E0,0E0,0E0,0E0,0E0,0E0,0E0,0E0],"parents":[2147483647,0,0,1,1,2,2,3,3,4,4,5,5,6,6],"right_children":[2,4,6,8,10,12,14,-1,-1,-1,-1,-1,-1,-1,-1],"split_conditions":[5.780308E-1,2.3E1,1.8E1,1.5E1,4.9E1,6.8964964E-1,2.9E1,-9.5102236E-2,-7.916006E-2,-4.4928376E-2,1.3509806E-1,-6.560224E-2,-3.2049336E-2,-1.5997482E-2,2.9031968E-2],"split_indices":[1,0,0,0,0,1,0,0,0,0,0,0,0,0,0],"split_type":[0,0,0,0,0,0,0,0,0,0,0,0,0,0,0],"sum_hessian":[1.0056083E4,5.3120522E3,4.744031E3,4.7986377E3,5.1341455E2,2.8004668E3,1.9435642E3,3.325857E3,1.4727808E3,5.0820984E2,5.204707E0,1.9875662E3,8.1290063E2,1.4213162E3,5.22248E2],"tree_param":{"num_deleted":"0","num_feature":"2","num_nodes":"15","size_leaf_vector":"1"}},{"base_weights":[-5.8784544E-1,-8.365508E-1,-3.2192895E-1,-8.9492524E-1,-4.68805E-1,-5.2970743E-1,-3.5311226E-2,-9.6083306E-2,-8.010142E-2,-5.493578E-2,-3.8949233E-3,-6.0077395E-2,-2.0399028E-2,-1.0273692E-2,4.713875E-2],"categories":[],"categories_nodes":[],"categories_segments":[],"categories_sizes":[],"default_left":[0,0,0,0,0,0,0,0,0,0,0,0,0,0,0],"id":12,"left_children":[1,3,5,7,9,11,13,-1,-1,-1,-1,-1,-1,-1,-1],"loss_changes":[6.2919653E2,1.0514404E2,2.740099E2,2.5490723E1,2.3377182E1,6.1624146E1,6.615329E1,0E0,0E0,0E0,0E0,0E0,0E0,0E0,0E0],"parents":[2147483647,0,0,1,1,2,2,3,3,4,4,5,5,6,6],"right_children":[2,4,6,8,10,12,14,-1,-1,-1,-1,-1,-1,-1,-1],"split_conditions":[5.780308E-1,2.1E1,1.8E1,4.845872E-1,3.3E1,7.091944E-1,3.6E1,-9.6083306E-2,-8.010142E-2,-5.493578E-2,-3.8949233E-3,-6.0077395E-2,-2.0399028E-2,-1.0273692E-2,4.713875E-2],"split_indices":[1,0,0,1,0,1,0,0,0,0,0,0,0,0,0],"split_type":[0,0,0,0,0,0,0,0,0,0,0,0,0,0,0],"sum_hessian":[9.516915E3,4.9164917E3,4.600424E3,4.2417417E3,6.7475006E2,2.6665251E3,1.9338984E3,2.4870618E3,1.7546798E3,5.6802673E2,1.0672332E2,2.1882402E3,4.7828506E2,1.7074833E3,2.2641518E2],"tree_param":{"num_deleted":"0","num_feature":"2","num_nodes":"15","size_leaf_vector":"1"}},{"base_weights":[-5.60066E-1,-8.160368E-1,-2.9904163E-1,-8.7807375E-1,-4.4084647E-1,-5.240498E-1,-5.835141E-2,-9.488473E-2,-7.787231E-2,-5.2040022E-2,-3.5198063E-3,-6.60104E-2,-3.5613667E-2,-1.1619843E-2,4.781883E-2],"categories":[],"categories_nodes":[],"categories_segments":[],"categories_sizes":[],"default_left":[0,0,0,0,0,0,0,0,0,0,0,0,0,0,0],"id":13,"left_children":[1,3,5,7,9,11,13,-1,-1,-1,-1,-1,-1,-1,-1],"loss_changes":[6.028662E2,1.0567651E2,2.4209418E2,2.6749023E1,2.0911476E1,5.2549744E1,6.713432E1,0E0,0E0,0E0,0E0,0E0,0E0,0E0,0E0],"parents":[2147483647,0,0,1,1,2,2,3,3,4,4,5,5,6,6],"right_children":[2,4,6,8,10,12,14,-1,-1,-1,-1,-1,-1,-1,-1],"split_conditions":[5.780308E-1,2.1E1,1.7E1,4.845872E-1,3.3E1,6.648456E-1,7.519084E-1,-9.488473E-2,-7.787231E-2,-5.2040022E-2,-3.5198063E-3,-6.60104E-2,-3.5613667E-2,-1.1619843E-2,4.781883E-2],"split_indices":[1,0,0,1,0,1,1,0,0,0,0,0,0,0,0],"split_type":[0,0,0,0,0,0,0,0,0,0,0,0,0,0,0],"sum_hessian":[9.025619E3,4.555848E3,4.469771E3,3.9082817E3,6.475664E2,2.3095352E3,2.1602358E3,2.2773994E3,1.6308824E3,5.4115485E2,1.0641153E2,1.2741802E3,1.035355E3,1.9507041E3,2.0953171E2],"tree_param":{"num_deleted":"0","num_feature":"2","num_nodes":"15","size_leaf_vector":"1"}},{"base_weights":[-5.322695E-1,-7.949344E-1,-2.7709335E-1,-8.7373585E-1,-4.739397E-1,-4.544909E-1,1.8426148E-3,-9.47366E-2,-7.692198E-2,-5.8571856E-2,-1.9853676E-2,-5.293891E-2,-1.4113495E-2,-1.5199904E-2,1.9075451E-2],"categories":[],"categories_nodes":[],"categories_segments":[],"categories_sizes":[],"default_left":[0,0,0,0,0,0,0,0,0,0,0,0,0,0,0],"id":14,"left_children":[1,3,5,7,9,11,13,-1,-1,-1,-1,-1,-1,-1,-1],"loss_changes":[5.749756E2,1.0653955E2,2.1546976E2,2.5387207E1,2.5606857E1,6.2394226E1,4.9254078E1,0E0,0E0,0E0,0E0,0E0,0E0,0E0,0E0],"parents":[2147483647,0,0,1,1,2,2,3,3,4,4,5,5,6,6],"right_children":[2,4,6,8,10,12,14,-1,-1,-1,-1,-1,-1,-1,-1],"split_conditions":[5.780308E-1,1.9E1,1.9E1,4.845872E-1,2.7E1,7.091944E-1,6.877378E-1,-9.47366E-2,-7.692198E-2,-5.8571856E-2,-1.9853676E-2,-5.293891E-2,-1.4113495E-2,-1.5199904E-2,1.9075451E-2],"split_indices":[1,0,0,1,0,1,1,0,0,0,0,0,0,0,0],"split_type":[0,0,0,0,0,0,0,0,0,0,0,0,0,0,0],"sum_hessian":[8.580709E3,4.2272676E3,4.353442E3,3.392673E3,8.345945E2,2.6606765E3,1.6927653E3,1.9857059E3,1.406967E3,5.928467E2,2.417478E2,2.1468486E3,5.1382806E2,9.330915E2,7.5967377E2],"tree_param":{"num_deleted":"0","num_feature":"2","num_nodes":"15","size_leaf_vector":"1"}},{"base_weights":[-5.047422E-1,-7.785926E-1,-2.6119152E-1,-8.4668714E-1,-3.9542884E-1,-4.7840026E-1,-4.3314982E-2,-9.24151E-2,-7.3648475E-2,-4.734081E-2,-2.4506378E-3,-6.193639E-2,-3.0445293E-2,-1.4654624E-2,2.2581106E-2],"categories":[],"categories_nodes":[],"categories_segments":[],"categories_sizes":[],"default_left":[0,0,0,0,0,0,0,0,0,0,0,0,0,0,0],"id":15,"left_children":[1,3,5,7,9,11,13,-1,-1,-1,-1,-1,-1,-1,-1],"loss_changes":[5.451282E2,1.00071045E2,2.0485132E2,2.7206055E1,1.6838928E1,5.2965424E1,6.0106987E1,0E0,0E0,0E0,0E0,0E0,0E0,0E0,0E0],"parents":[2147483647,0,0,1,1,2,2,3,3,4,4,5,5,6,6],"right_children":[2,4,6,8,10,12,14,-1,-1,-1,-1,-1,-1,-1,-1],"split_conditions":[5.7370555E-1,2.1E1,1.7E1,4.845872E-1,3.3E1,6.648456E-1,2.8E1,-9.24151E-2,-7.3648475E-2,-4.734081E-2,-2.4506378E-3,-6.193639E-2,-3.0445293E-2,-1.4654624E-2,2.2581106E-2],"split_indices":[1,0,0,1,0,1,0,0,0,0,0,0,0,0,0],"split_type":[0,0,0,0,0,0,0,0,0,0,0,0,0,0,0],"sum_hessian":[8.1753223E3,3.8472485E3,4.3280737E3,3.2656743E3,5.8157416E2,2.1667595E3,2.1613145E3,1.9133491E3,1.3523253E3,4.803199E2,1.0125427E2,1.1954382E3,9.713213E2,1.562447E3,5.988673E2],"tree_param":{"num_deleted":"0","num_feature":"2","num_nodes":"15","size_leaf_vector":"1"}},{"base_weights":[-4.7767234E-1,-7.5646454E-1,-2.4142468E-1,-8.522191E-1,-4.5922095E-1,-4.748604E-1,-5.9731346E-2,-9.4836555E-2,-7.616285E-2,-5.5998053E-2,-1.6722484E-2,-5.687337E-2,-2.4579337E-2,-1.4898366E-2,2.0051764E-2],"categories":[],"categories_nodes":[],"categories_segments":[],"categories_sizes":[],"default_left":[0,0,0,0,0,0,0,0,0,0,0,0,0,0,0],"id":16,"left_children":[1,3,5,7,9,11,13,-1,-1,-1,-1,-1,-1,-1,-1],"loss_changes":[5.139158E2,1.0150098E2,1.7923656E2,2.2850708E1,2.5632736E1,3.963568E1,5.5261856E1,0E0,0E0,0E0,0E0,0E0,0E0,0E0,0E0],"parents":[2147483647,0,0,1,1,2,2,3,3,4,4,5,5,6,6],"right_children":[2,4,6,8,10,12,14,-1,-1,-1,-1,-1,-1,-1,-1],"split_conditions":[5.7370555E-1,1.8E1,1.6E1,4.5699325E-1,2.7E1,6.8964964E-1,2.8E1,-9.4836555E-2,-7.616285E-2,-5.5998053E-2,-1.6722484E-2,-5.687337E-2,-2.4579337E-2,-1.4898366E-2,2.0051764E-2],"split_indices":[1,0,0,1,0,1,0,0,0,0,0,0,0,0,0],"split_type":[0,0,0,0,0,0,0,0,0,0,0,0,0,0,0],"sum_hessian":[7.8044546E3,3.578876E3,4.2255786E3,2.7054653E3,8.734105E2,1.8487415E3,2.376837E3,1.3078926E3,1.3975729E3,6.48659E2,2.2475151E2,1.3102917E3,5.384497E2,1.7701814E3,6.066557E2],"tree_param":{"num_deleted":"0","num_feature":"2","num_nodes":"15","size_leaf_vector":"1"}},{"base_weights":[-4.5097902E-1,-7.3365706E-1,-2.2273554E-1,-8.3462137E-1,-4.3206576E-1,-4.2434192E-1,-3.4544967E-2,-9.365637E-2,-7.378744E-2,-5.3213608E-2,-1.527797E-2,-5.669122E-2,-2.5681157E-2,-1.018034E-2,2.9088113E-2],"categories":[],"categories_nodes":[],"categories_segments":[],"categories_sizes":[],"default_left":[0,0,0,0,0,0,0,0,0,0,0,0,0,0,0],"id":17,"left_children":[1,3,5,7,9,11,13,-1,-1,-1,-1,-1,-1,-1,-1],"loss_changes":[4.817135E2,1.0122217E2,1.56818E2,2.3948364E1,2.3361221E1,4.7519104E1,4.684844E1,0E0,0E0,0E0,0E0,0E0,0E0,0E0,0E0],"parents":[2147483647,0,0,1,1,2,2,3,3,4,4,5,5,6,6],"right_children":[2,4,6,8,10,12,14,-1,-1,-1,-1,-1,-1,-1,-1],"split_conditions":[5.7370555E-1,1.8E1,1.7E1,4.585584E-1,2.7E1,6.648456E-1,7.348752E-1,-9.365637E-2,-7.378744E-2,-5.3213608E-2,-1.527797E-2,-5.669122E-2,-2.5681157E-2,-1.018034E-2,2.9088113E-2],"split_indices":[1,0,0,1,0,1,1,0,0,0,0,0,0,0,0],"split_type":[0,0,0,0,0,0,0,0,0,0,0,0,0,0,0],"sum_hessian":[7.467711E3,3.3350542E3,4.1326567E3,2.4972708E3,8.3778345E2,1.9946049E3,2.138052E3,1.2117592E3,1.2855116E3,6.161183E2,2.2166518E2,1.0762877E3,9.1831714E2,1.772419E3,3.6563297E2],"tree_param":{"num_deleted":"0","num_feature":"2","num_nodes":"15","size_leaf_vector":"1"}},{"base_weights":[-4.2467448E-1,-7.1020645E-1,-2.050553E-1,-8.163073E-1,-4.0554044E-1,-4.216493E-1,-4.771844E-2,-9.2698E-2,-7.158176E-2,-5.044358E-2,-1.3941354E-2,-4.9970325E-2,-1.6014492E-2,-1.8606964E-2,1.02081755E-2],"categories":[],"categories_nodes":[],"categories_segments":[],"categories_sizes":[],"default_left":[0,0,0,0,0,0,0,0,0,0,0,0,0,0,0],"id":18,"left_children":[1,3,5,7,9,11,13,-1,-1,-1,-1,-1,-1,-1,-1],"loss_changes":[4.491355E2,1.003457E2,1.380355E2,2.5015991E1,2.1154526E1,3.4710236E1,4.8674988E1,0E0,0E0,0E0,0E0,0E0,0E0,0E0,0E0],"parents":[2147483647,0,0,1,1,2,2,3,3,4,4,5,5,6,6],"right_children":[2,4,6,8,10,12,14,-1,-1,-1,-1,-1,-1,-1,-1],"split_conditions":[5.7370555E-1,1.8E1,1.6E1,4.5699325E-1,2.7E1,7.011476E-1,6.8035775E-1,-9.2698E-2,-7.158176E-2,-5.044358E-2,-1.3941354E-2,-4.9970325E-2,-1.6014492E-2,-1.8606964E-2,1.02081755E-2],"split_indices":[1,0,0,1,0,1,1,0,0,0,0,0,0,0,0],"split_type":[0,0,0,0,0,0,0,0,0,0,0,0,0,0,0],"sum_hessian":[7.163619E3,3.1134792E3,4.0501401E3,2.3080237E3,8.0545544E2,1.7034486E3,2.3466917E3,1.0944478E3,1.2135759E3,5.865809E2,2.1887462E2,1.3111771E3,3.9227148E2,1.21984E3,1.1268516E3],"tree_param":{"num_deleted":"0","num_feature":"2","num_nodes":"15","size_leaf_vector":"1"}},{"base_weights":[-3.9894864E-1,-6.8613935E-1,-1.8845999E-1,-7.972391E-1,-3.7973753E-1,-3.2384458E-1,3.934804E-2,-9.156247E-2,-6.91932E-2,-4.769896E-2,-1.270734E-2,-4.6304867E-2,-1.7639583E-2,2.0540413E-3,1.2945336E-1],"categories":[],"categories_nodes":[],"categories_segments":[],"categories_sizes":[],"default_left":[0,0,0,0,0,0,0,0,0,0,0,0,0,0,0],"id":19,"left_children":[1,3,5,7,9,11,13,-1,-1,-1,-1,-1,-1,-1,-1],"loss_changes":[4.1630872E2,9.886682E1,1.2266086E2,2.6009155E1,1.9035278E1,5.111792E1,3.498871E1,0E0,0E0,0E0,0E0,0E0,0E0,0E0,0E0],"parents":[2147483647,0,0,1,1,2,2,3,3,4,4,5,5,6,6],"right_children":[2,4,6,8,10,12,14,-1,-1,-1,-1,-1,-1,-1,-1],"split_conditions":[5.7370555E-1,1.8E1,2E1,4.5699325E-1,2.7E1,6.6659635E-1,5.2E1,-9.156247E-2,-6.91932E-2,-4.769896E-2,-1.270734E-2,-4.6304867E-2,-1.7639583E-2,2.0540413E-3,1.2945336E-1],"split_indices":[1,0,0,1,0,1,0,0,0,0,0,0,0,0,0],"split_type":[0,0,0,0,0,0,0,0,0,0,0,0,0,0,0],"sum_hessian":[6.887922E3,2.9122239E3,3.975698E3,2.1360874E3,7.761366E2,2.4934424E3,1.4822555E3,1.0019771E3,1.1341104E3,5.597842E2,2.1635243E2,1.2814784E3,1.2119641E3,1.4613746E3,2.0880785E1],"tree_param":{"num_deleted":"0","num_feature":"2","num_nodes":"15","size_leaf_vector":"1"}},{"base_weights":[-3.7397042E-1,-7.2220033E-1,-2.0769267E-1,-8.274968E-1,-4.206757E-1,-4.795234E-1,-8.11933E-2,-9.267523E-2,-7.421821E-2,-4.9936567E-2,-6.8684043E-3,-6.118344E-2,-3.0564634E-2,-1.7034797E-2,1.2738158E-2],"categories":[],"categories_nodes":[],"categories_segments":[],"categories_sizes":[],"default_left":[0,0,0,0,0,0,0,0,0,0,0,0,0,0,0],"id":20,"left_children":[1,3,5,7,9,11,13,-1,-1,-1,-1,-1,-1,-1,-1],"loss_changes":[3.8416534E2,6.774219E1,1.5448094E2,1.2763306E1,1.5396866E1,3.263907E1,5.7068245E1,0E0,0E0,0E0,0E0,0E0,0E0,0E0,0E0],"parents":[2147483647,0,0,1,1,2,2,3,3,4,4,5,5,6,6],"right_children":[2,4,6,8,10,12,14,-1,-1,-1,-1,-1,-1,-1,-1],"split_conditions":[5.318338E-1,1.8E1,1.4E1,4.297328E-1,3E1,6.490704E-1,2.5E1,-9.267523E-2,-7.421821E-2,-4.9936567E-2,-6.8684043E-3,-6.118344E-2,-3.0564634E-2,-1.7034797E-2,1.2738158E-2],"split_indices":[1,0,0,1,0,1,0,0,0,0,0,0,0,0,0],"split_type":[0,0,0,0,0,0,0,0,0,0,0,0,0,0,0],"sum_hessian":[6.6362397E3,2.143609E3,4.492631E3,1.587491E3,5.5611774E2,1.4258575E3,3.0667732E3,7.292341E2,8.5825696E2,4.541671E2,1.01950645E2,8.082808E2,6.175767E2,2.1485608E3,9.1821234E2],"tree_param":{"num_deleted":"0","num_feature":"2","num_nodes":"15","size_leaf_vector":"1"}},{"base_weights":[-3.4979382E-1,-6.9898814E-1,-1.9104838E-1,-8.096574E-1,-3.946283E-1,-4.5243737E-1,-7.376249E-2,-9.160893E-2,-7.1981445E-2,-4.7203097E-2,-6.224214E-3,-5.851046E-2,-2.8323356E-2,-1.8638132E-2,7.402513E-3],"categories":[],"categories_nodes":[],"categories_segments":[],"categories_sizes":[],"default_left":[0,0,0,0,0,0,0,0,0,0,0,0,0,0,0],"id":21,"left_children":[1,3,5,7,9,11,13,-1,-1,-1,-1,-1,-1,-1,-1],"loss_changes":[3.5514E2,6.71358E1,1.3508614E2,1.3374634E1,1.3759621E1,3.0473389E1,5.066915E1,0E0,0E0,0E0,0E0,0E0,0E0,0E0,0E0],"parents":[2147483647,0,0,1,1,2,2,3,3,4,4,5,5,6,6],"right_children":[2,4,6,8,10,12,14,-1,-1,-1,-1,-1,-1,-1,-1],"split_conditions":[5.318338E-1,1.8E1,1.4E1,4.297328E-1,3E1,6.490704E-1,6.8035775E-1,-9.160893E-2,-7.1981445E-2,-4.7203097E-2,-6.224214E-3,-5.851046E-2,-2.8323356E-2,-1.8638132E-2,7.402513E-3],"split_indices":[1,0,0,1,0,1,1,0,0,0,0,0,0,0,0],"split_type":[0,0,0,0,0,0,0,0,0,0,0,0,0,0,0],"sum_hessian":[6.4080615E3,2.0016357E3,4.406426E3,1.4666735E3,5.349622E2,1.3639047E3,3.0425212E3,6.671467E2,7.995268E2,4.335755E2,1.01386734E2,7.6311395E2,6.007908E2,1.7265641E3,1.3159573E3],"tree_param":{"num_deleted":"0","num_feature":"2","num_nodes":"15","size_leaf_vector":"1"}},{"base_weights":[-3.263491E-1,-6.751271E-1,-1.7538397E-1,-7.910063E-1,-3.6931035E-1,-4.258241E-1,-6.692215E-2,-9.048769E-2,-6.967202E-2,-4.45077E-2,-5.6374553E-3,-5.6955922E-2,-2.7468352E-2,-1.0009294E-2,3.990695E-2],"categories":[],"categories_nodes":[],"categories_segments":[],"categories_sizes":[],"default_left":[0,0,0,0,0,0,0,0,0,0,0,0,0,0,0],"id":22,"left_children":[1,3,5,7,9,11,13,-1,-1,-1,-1,-1,-1,-1,-1],"loss_changes":[3.2654578E2,6.611139E1,1.1762215E2,1.3949829E1,1.2227921E1,2.8274857E1,4.6775352E1,0E0,0E0,0E0,0E0,0E0,0E0,0E0,0E0],"parents":[2147483647,0,0,1,1,2,2,3,3,4,4,5,5,6,6],"right_children":[2,4,6,8,10,12,14,-1,-1,-1,-1,-1,-1,-1,-1],"split_conditions":[5.318338E-1,1.8E1,1.4E1,4.297328E-1,3E1,6.409108E-1,3.8E1,-9.048769E-2,-6.967202E-2,-4.45077E-2,-5.6374553E-3,-5.6955922E-2,-2.7468352E-2,-1.0009294E-2,3.990695E-2],"split_indices":[1,0,0,1,0,1,0,0,0,0,0,0,0,0,0],"split_type":[0,0,0,0,0,0,0,0,0,0,0,0,0,0,0],"sum_hessian":[6.203057E3,1.8728046E3,4.3302524E3,1.3570199E3,5.157846E2,1.3077382E3,3.0225146E3,6.107782E2,7.4624176E2,4.149069E2,1.0087773E2,6.6887134E2,6.3886676E2,2.8223928E3,2.0012181E2],"tree_param":{"num_deleted":"0","num_feature":"2","num_nodes":"15","size_leaf_vector":"1"}},{"base_weights":[-3.0390257E-1,-6.5067035E-1,-1.6082142E-1,-7.500847E-1,-2.7910647E-1,-3.485367E-1,-3.1450305E-2,-8.8147245E-2,-6.4713955E-2,-3.14061E-2,3.8470857E-2,-4.698245E-2,-1.754451E-2,-5.5412874E-3,5.614352E-2],"categories":[],"categories_nodes":[],"categories_segments":[],"categories_sizes":[],"default_left":[0,0,0,0,0,0,0,0,0,0,0,0,0,0,0],"id":23,"left_children":[1,3,5,7,9,11,13,-1,-1,-1,-1,-1,-1,-1,-1],"loss_changes":[2.9839197E2,6.469E1,1.034478E2,1.8169373E1,8.762884E0,3.6406265E1,3.587753E1,0E0,0E0,0E0,0E0,0E0,0E0,0E0,0E0],"parents":[2147483647,0,0,1,1,2,2,3,3,4,4,5,5,6,6],"right_children":[2,4,6,8,10,12,14,-1,-1,-1,-1,-1,-1,-1,-1],"split_conditions":[5.318338E-1,2E1,1.6E1,4.297328E-1,4.1E1,6.6294587E-1,4.4E1,-8.8147245E-2,-6.4713955E-2,-3.14061E-2,3.8470857E-2,-4.698245E-2,-1.754451E-2,-5.5412874E-3,5.614352E-2],"split_indices":[1,0,0,1,0,1,0,0,0,0,0,0,0,0,0],"split_type":[0,0,0,0,0,0,0,0,0,0,0,0,0,0,0],"sum_hessian":[6.015145E3,1.7559417E3,4.259203E3,1.3844928E3,3.7144873E2,1.7370619E3,2.5221414E3,6.0490137E2,7.795915E2,3.533683E2,1.8080458E1,1.0203639E3,7.1669806E2,2.4250354E3,9.710579E1],"tree_param":{"num_deleted":"0","num_feature":"2","num_nodes":"15","size_leaf_vector":"1"}},{"base_weights":[-2.8239685E-1,-5.564759E-1,-1.1304443E-1,-7.284657E-1,-2.9997054E-1,-2.0392437E-1,8.0225535E-2,-8.354785E-2,-5.948474E-2,-4.1801456E-2,-1.2008639E-2,-2.7437517E-2,1.8881183E-3,6.872605E-3,1.777051E-1],"categories":[],"categories_nodes":[],"categories_segments":[],"categories_sizes":[],"default_left":[0,0,0,0,0,0,0,0,0,0,0,0,0,0,0],"id":24,"left_children":[1,3,5,7,9,11,13,-1,-1,-1,-1,-1,-1,-1,-1],"loss_changes":[2.7126846E2,9.826135E1,6.3500515E1,1.860028E1,1.9011658E1,3.8598465E1,2.2448223E1,0E0,0E0,0E0,0E0,0E0,0E0,0E0,0E0],"parents":[2147483647,0,0,1,1,2,2,3,3,4,4,5,5,6,6],"right_children":[2,4,6,8,10,12,14,-1,-1,-1,-1,-1,-1,-1,-1],"split_conditions":[5.780308E-1,1.6E1,2.2E1,4.845872E-1,2.3E1,7.091944E-1,6E1,-8.354785E-2,-5.948474E-2,-4.1801456E-2,-1.2008639E-2,-2.7437517E-2,1.8881183E-3,6.872605E-3,1.777051E-1],"split_indices":[1,0,0,1,0,1,0,0,0,0,0,0,0,0,0],"split_type":[0,0,0,0,0,0,0,0,0,0,0,0,0,0,0],"sum_hessian":[5.8446504E3,2.231277E3,3.6133733E3,1.3345835E3,8.966936E2,2.4576672E3,1.1557062E3,7.3815466E2,5.964289E2,5.406096E2,3.5608398E2,1.8670707E3,5.9059644E2,1.1489601E3,6.7460647E0],"tree_param":{"num_deleted":"0","num_feature":"2","num_nodes":"15","size_leaf_vector":"1"}},{"base_weights":[-2.618857E-1,-6.016784E-1,-1.3353816E-1,-7.7900445E-1,-3.7370354E-1,-4.4372505E-1,-6.391101E-2,-8.9205705E-2,-7.068362E-2,-4.5130413E-2,-8.320078E-3,-6.524107E-2,-3.2885637E-2,-1.0054811E-2,2.8919969E-2],"categories":[],"categories_nodes":[],"categories_segments":[],"categories_sizes":[],"default_left":[0,0,0,0,0,0,0,0,0,0,0,0,0,0,0],"id":25,"left_children":[1,3,5,7,9,11,13,-1,-1,-1,-1,-1,-1,-1,-1],"loss_changes":[2.4810089E2,6.2769653E1,8.920818E1,6.520691E0,1.539122E1,1.793834E1,4.3698288E1,0E0,0E0,0E0,0E0,0E0,0E0,0E0,0E0],"parents":[2147483647,0,0,1,1,2,2,3,3,4,4,5,5,6,6],"right_children":[2,4,6,8,10,12,14,-1,-1,-1,-1,-1,-1,-1,-1],"split_conditions":[5.318338E-1,1.5E1,1.2E1,4.1080123E-1,2.7E1,6.059361E-1,7.4681026E-1,-8.9205705E-2,-7.068362E-2,-4.5130413E-2,-8.320078E-3,-6.524107E-2,-3.2885637E-2,-1.0054811E-2,2.8919969E-2],"split_indices":[1,0,0,1,0,1,1,0,0,0,0,0,0,0,0],"split_type":[0,0,0,0,0,0,0,0,0,0,0,0,0,0,0],"sum_hessian":[5.689723E3,1.5589104E3,4.130813E3,8.7550085E2,6.8340955E2,7.5627167E2,3.3745413E3,3.3669806E2,5.3880286E2,5.389018E2,1.4450772E2,2.6683124E2,4.8944043E2,3.0579753E3,3.1656583E2],"tree_param":{"num_deleted":"0","num_feature":"2","num_nodes":"15","size_leaf_vector":"1"}},{"base_weights":[-2.4233226E-1,-5.75895E-1,-1.2193136E-1,-7.59381E-1,-3.492879E-1,-4.174898E-1,-5.7914708E-2,-8.7991364E-2,-6.8383664E-2,-4.864704E-2,-1.909822E-2,-5.1185943E-2,-1.6773848E-2,-1.2366831E-2,1.1682921E-2],"categories":[],"categories_nodes":[],"categories_segments":[],"categories_sizes":[],"default_left":[0,0,0,0,0,0,0,0,0,0,0,0,0,0,0],"id":26,"left_children":[1,3,5,7,9,11,13,-1,-1,-1,-1,-1,-1,-1,-1],"loss_changes":[2.2293887E2,6.095868E1,7.7198166E1,6.7992554E0,1.4254692E1,1.7036118E1,3.8574028E1,0E0,0E0,0E0,0E0,0E0,0E0,0E0,0E0],"parents":[2147483647,0,0,1,1,2,2,3,3,4,4,5,5,6,6],"right_children":[2,4,6,8,10,12,14,-1,-1,-1,-1,-1,-1,-1,-1],"split_conditions":[5.318338E-1,1.5E1,1.2E1,4.1080123E-1,2.1E1,6.8035775E-1,2.5E1,-8.7991364E-2,-6.8383664E-2,-4.864704E-2,-1.909822E-2,-5.1185943E-2,-1.6773848E-2,-1.2366831E-2,1.1682921E-2],"split_indices":[1,0,0,1,0,1,0,0,0,0,0,0,0,0,0],"split_type":[0,0,0,0,0,0,0,0,0,0,0,0,0,0,0],"sum_hessian":[5.5518403E3,1.4714639E3,4.0803762E3,8.117948E2,6.59669E2,7.254634E2,3.3549128E3,3.086651E2,5.031297E2,3.5230243E2,3.0736658E2,5.25755E2,1.9970836E2,2.43787E3,9.1704285E2],"tree_param":{"num_deleted":"0","num_feature":"2","num_nodes":"15","size_leaf_vector":"1"}},{"base_weights":[-2.239133E-1,-6.006421E-1,-1.262926E-1,-7.078993E-1,-2.4564816E-1,-3.459099E-1,-3.8216963E-2,-8.281054E-2,-5.7659503E-2,-2.6630396E-2,9.552191E-2,-4.875907E-2,-1.82827E-2,-1.2795992E-2,8.500842E-3],"categories":[],"categories_nodes":[],"categories_segments":[],"categories_sizes":[],"default_left":[0,0,0,0,0,0,0,0,0,0,0,0,0,0,0],"id":27,"left_children":[1,3,5,7,9,11,13,-1,-1,-1,-1,-1,-1,-1,-1],"loss_changes":[1.9947006E2,4.233304E1,8.3364944E1,1.3046082E1,6.7177296E0,2.8417374E1,3.404686E1,0E0,0E0,0E0,0E0,0E0,0E0,0E0,0E0],"parents":[2147483647,0,0,1,1,2,2,3,3,4,4,5,5,6,6],"right_children":[2,4,6,8,10,12,14,-1,-1,-1,-1,-1,-1,-1,-1],"split_conditions":[5.030074E-1,2E1,1.4E1,4.297328E-1,4.7E1,6.409108E-1,6.8035775E-1,-8.281054E-2,-5.7659503E-2,-2.6630396E-2,9.552191E-2,-4.875907E-2,-1.82827E-2,-1.2795992E-2,8.500842E-3],"split_indices":[1,0,0,1,0,1,1,0,0,0,0,0,0,0,0],"split_type":[0,0,0,0,0,0,0,0,0,0,0,0,0,0,0],"sum_hessian":[5.4249043E3,1.11538E3,4.309524E3,8.5581226E2,2.5956775E2,1.2327429E3,3.0767812E3,4.4401752E2,4.1179474E2,2.5594357E2,3.624179E0,6.585915E2,5.7415137E2,1.7802308E3,1.2965503E3],"tree_param":{"num_deleted":"0","num_feature":"2","num_nodes":"15","size_leaf_vector":"1"}},{"base_weights":[-2.0646787E-1,-5.749698E-1,-1.15274034E-1,-7.747897E-1,-3.8007858E-1,-3.224039E-1,-3.457665E-2,-8.7193556E-2,-7.0287324E-2,-5.1773604E-2,-2.2631777E-2,-5.6563426E-2,-2.2903139E-2,-9.712657E-3,1.2496284E-2],"categories":[],"categories_nodes":[],"categories_segments":[],"categories_sizes":[],"default_left":[0,0,0,0,0,0,0,0,0,0,0,0,0,0,0],"id":28,"left_children":[1,3,5,7,9,11,13,-1,-1,-1,-1,-1,-1,-1,-1],"loss_changes":[1.7844435E2,4.073358E1,7.1185196E1,3.014679E0,1.1213364E1,2.6989624E1,3.0612028E1,0E0,0E0,0E0,0E0,0E0,0E0,0E0,0E0],"parents":[2147483647,0,0,1,1,2,2,3,3,4,4,5,5,6,6],"right_children":[2,4,6,8,10,12,14,-1,-1,-1,-1,-1,-1,-1,-1],"split_conditions":[5.030074E-1,1.4E1,1.4E1,4.0052655E-1,2E1,5.8231854E-1,2.6E1,-8.7193556E-2,-7.0287324E-2,-5.1773604E-2,-2.2631777E-2,-5.6563426E-2,-2.2903139E-2,-9.712657E-3,1.2496284E-2],"split_indices":[1,0,0,1,0,1,0,0,0,0,0,0,0,0,0],"split_type":[0,0,0,0,0,0,0,0,0,0,0,0,0,0,0],"sum_hessian":[5.311008E3,1.0525381E3,4.258469E3,5.1822864E2,5.343095E2,1.1930963E3,3.065373E3,2.1571417E2,3.0251443E2,2.8066837E2,2.5364114E2,3.295579E2,8.635384E2,2.2023135E3,8.6305975E2],"tree_param":{"num_deleted":"0","num_feature":"2","num_nodes":"15","size_leaf_vector":"1"}},{"base_weights":[-1.9014008E-1,-5.490272E-1,-1.0514511E-1,-7.5537604E-1,-3.5555646E-1,-3.6883727E-1,-4.9796637E-2,-8.587758E-2,-6.801047E-2,-4.914444E-2,-2.0821624E-2,-5.814872E-2,-2.5558913E-2,-1.3297081E-2,6.799297E-3],"categories":[],"categories_nodes":[],"categories_segments":[],"categories_sizes":[],"default_left":[0,0,0,0,0,0,0,0,0,0,0,0,0,0,0],"id":29,"left_children":[1,3,5,7,9,11,13,-1,-1,-1,-1,-1,-1,-1,-1],"loss_changes":[1.5878845E2,3.9529846E1,6.144926E1,3.1634521E0,1.0236717E1,1.7443039E1,3.412319E1,0E0,0E0,0E0,0E0,0E0,0E0,0E0,0E0],"parents":[2147483647,0,0,1,1,2,2,3,3,4,4,5,5,6,6],"right_children":[2,4,6,8,10,12,14,-1,-1,-1,-1,-1,-1,-1,-1],"split_conditions":[5.030074E-1,1.4E1,1.2E1,4.0052655E-1,2E1,5.938312E-1,6.8035775E-1,-8.587758E-2,-6.801047E-2,-4.914444E-2,-2.0821624E-2,-5.814872E-2,-2.5558913E-2,-1.3297081E-2,6.799297E-3],"split_indices":[1,0,0,1,0,1,1,0,0,0,0,0,0,0,0],"split_type":[0,0,0,0,0,0,0,0,0,0,0,0,0,0,0],"sum_hessian":[5.206458E3,9.958922E2,4.210566E3,4.8050192E2,5.1539026E2,7.2948364E2,3.4810823E3,1.9804274E2,2.824592E2,2.6690005E2,2.484902E2,2.520556E2,4.77428E2,2.0402688E3,1.4408136E3],"tree_param":{"num_deleted":"0","num_feature":"2","num_nodes":"15","size_leaf_vector":"1"}},{"base_weights":[-1.7475693E-1,-5.432169E-1,-9.973104E-2,-6.7811704E-1,-2.0250826E-1,-3.548056E-1,-4.709574E-2,-7.916274E-2,-5.343601E-2,-2.202213E-2,8.190508E-2,-5.4423403E-2,-2.2196267E-2,-8.414003E-3,1.919849E-2],"categories":[],"categories_nodes":[],"categories_segments":[],"categories_sizes":[],"default_left":[0,0,0,0,0,0,0,0,0,0,0,0,0,0,0],"id":30,"left_children":[1,3,5,7,9,11,13,-1,-1,-1,-1,-1,-1,-1,-1],"loss_changes":[1.4134103E2,3.9622772E1,5.7053997E1,9.682312E0,4.6460524E0,1.8172707E1,3.1233978E1,0E0,0E0,0E0,0E0,0E0,0E0,0E0,0E0],"parents":[2147483647,0,0,1,1,2,2,3,3,4,4,5,5,6,6],"right_children":[2,4,6,8,10,12,14,-1,-1,-1,-1,-1,-1,-1,-1],"split_conditions":[4.9304256E-1,1.9E1,1.2E1,4.297328E-1,4.7E1,6.059361E-1,7.348752E-1,-7.916274E-2,-5.343601E-2,-2.202213E-2,8.190508E-2,-5.4423403E-2,-2.2196267E-2,-8.414003E-3,1.919849E-2],"split_indices":[1,0,0,1,0,1,1,0,0,0,0,0,0,0,0],"split_type":[0,0,0,0,0,0,0,0,0,0,0,0,0,0,0],"sum_hessian":[5.1138545E3,8.64071E2,4.249783E3,6.1827924E2,2.4579176E2,7.2596454E2,3.5238188E3,3.4296646E2,2.7531274E2,2.4237361E2,3.418146E0,2.9797208E2,4.2799246E2,3.0516323E3,4.7218643E2],"tree_param":{"num_deleted":"0","num_feature":"2","num_nodes":"15","size_leaf_vector":"1"}},{"base_weights":[-1.6036041E-1,-5.171891E-1,-9.077824E-2,-6.546946E-1,-1.8580651E-1,-2.2996381E-1,-4.584542E-3,-7.733273E-2,-5.082334E-2,-8.341418E-2,-1.562757E-2,-4.3648195E-2,-1.3867428E-2,-1.863909E-3,6.552214E-2],"categories":[],"categories_nodes":[],"categories_segments":[],"categories_sizes":[],"default_left":[0,0,0,0,0,0,0,0,0,0,0,0,0,0,0],"id":31,"left_children":[1,3,5,7,9,11,13,-1,-1,-1,-1,-1,-1,-1,-1],"loss_changes":[1.2486247E2,3.7276E1,5.051899E1,9.678268E0,4.5044622E0,3.03014E1,2.4137796E1,0E0,0E0,0E0,0E0,0E0,0E0,0E0,0E0],"parents":[2147483647,0,0,1,1,2,2,3,3,4,4,5,5,6,6],"right_children":[2,4,6,8,10,12,14,-1,-1,-1,-1,-1,-1,-1,-1],"split_conditions":[4.9304256E-1,1.9E1,1.6E1,4.297328E-1,2.895597E-1,5.9228575E-1,4.8E1,-7.733273E-2,-5.082334E-2,-8.341418E-2,-1.562757E-2,-4.3648195E-2,-1.3867428E-2,-1.863909E-3,6.552214E-2],"split_indices":[1,0,0,1,1,1,0,0,0,0,0,0,0,0,0],"split_type":[0,0,0,0,0,0,0,0,0,0,0,0,0,0,0],"sum_hessian":[5.029805E3,8.197191E2,4.210086E3,5.7863983E2,2.4107932E2,1.6094608E3,2.600625E3,3.1732693E2,2.613129E2,9.315494E0,2.3176382E2,4.9220264E2,1.1172582E3,2.547336E3,5.328913E1],"tree_param":{"num_deleted":"0","num_feature":"2","num_nodes":"15","size_leaf_vector":"1"}},{"base_weights":[-1.4700308E-1,-5.0865537E-1,-8.566529E-2,-6.528827E-1,-1.7216413E-1,-1.6971174E-1,4.9815554E-2,-7.8171E-2,-5.344044E-2,-8.1751846E-2,-1.4154415E-2,-3.7426945E-2,-9.83154E-3,8.730418E-4,3.1434722E-2],"categories":[],"categories_nodes":[],"categories_segments":[],"categories_sizes":[],"default_left":[0,0,0,0,0,0,0,0,0,0,0,0,0,0,0],"id":32,"left_children":[1,3,5,7,9,11,13,-1,-1,-1,-1,-1,-1,-1,-1],"loss_changes":[1.0983626E2,3.4737015E1,4.8245434E1,7.2486877E0,4.1684194E0,3.8148987E1,1.7632566E1,0E0,0E0,0E0,0E0,0E0,0E0,0E0,0E0],"parents":[2147483647,0,0,1,1,2,2,3,3,4,4,5,5,6,6],"right_children":[2,4,6,8,10,12,14,-1,-1,-1,-1,-1,-1,-1,-1],"split_conditions":[4.845872E-1,1.9E1,6.8035775E-1,4.0882325E-1,2.895597E-1,1.3E1,7.585528E-1,-7.8171E-2,-5.344044E-2,-8.1751846E-2,-1.4154415E-2,-3.7426945E-2,-9.83154E-3,8.730418E-4,3.1434722E-2],"split_indices":[1,0,1,1,1,0,1,0,0,0,0,0,0,0,0],"split_type":[0,0,0,0,0,0,0,0,0,0,0,0,0,0,0],"sum_hessian":[4.952345E3,7.170821E2,4.235263E3,5.0128174E2,2.1580037E2,2.6136287E3,1.6216345E3,2.3747052E2,2.6381122E2,8.611133E0,2.0718924E2,6.7511475E2,1.9385138E3,1.4045266E3,2.171079E2],"tree_param":{"num_deleted":"0","num_feature":"2","num_nodes":"15","size_leaf_vector":"1"}},{"base_weights":[-1.3458769E-1,-4.6576416E-1,-7.4928336E-2,-6.956933E-1,-2.6966244E-1,-1.3065927E-1,1.06127225E-1,-8.295455E-2,-6.1208326E-2,-5.1673945E-2,-1.8480498E-2,-2.587871E-2,-4.900405E-3,9.333676E-3,1.5497328E-1],"categories":[],"categories_nodes":[],"categories_segments":[],"categories_sizes":[],"default_left":[0,0,0,0,0,0,0,0,0,0,0,0,0,0,0],"id":33,"left_children":[1,3,5,7,9,11,13,-1,-1,-1,-1,-1,-1,-1,-1],"loss_changes":[9.645591E1,3.341678E1,4.178212E1,3.3244019E0,8.372004E0,3.3106674E1,1.785477E1,0E0,0E0,0E0,0E0,0E0,0E0,0E0,0E0],"parents":[2147483647,0,0,1,1,2,2,3,3,4,4,5,5,6,6],"right_children":[2,4,6,8,10,12,14,-1,-1,-1,-1,-1,-1,-1,-1],"split_conditions":[4.9304256E-1,1.4E1,2.5E1,1E1,3.8726777E-1,6.2643594E-1,6E1,-8.295455E-2,-6.1208326E-2,-5.1673945E-2,-1.8480498E-2,-2.587871E-2,-4.900405E-3,9.333676E-3,1.5497328E-1],"split_indices":[1,0,0,0,1,1,0,0,0,0,0,0,0,0,0],"split_type":[0,0,0,0,0,0,0,0,0,0,0,0,0,0,0],"sum_hessian":[4.8826885E3,7.442817E2,4.1384067E3,3.414197E2,4.0286197E2,3.164589E3,9.738176E2,1.27839134E2,2.1358057E2,1.0168863E2,3.0117334E2,1.2309292E3,1.93366E3,9.663206E2,7.497029E0],"tree_param":{"num_deleted":"0","num_feature":"2","num_nodes":"15","size_leaf_vector":"1"}},{"base_weights":[-1.23073794E-1,-4.574615E-1,-7.0604905E-2,-6.070211E-1,-1.3493396E-1,-2.9008847E-1,-2.8106522E-2,-7.47282E-2,-4.826513E-2,-1.5435754E-2,7.8324966E-2,-4.8993602E-2,-1.8021572E-2,-6.035906E-3,1.565749E-2],"categories":[],"categories_nodes":[],"categories_segments":[],"categories_sizes":[],"default_left":[0,0,0,0,0,0,0,0,0,0,0,0,0,0,0],"id":34,"left_children":[1,3,5,7,9,11,13,-1,-1,-1,-1,-1,-1,-1,-1],"loss_changes":[8.4512726E1,3.1435272E1,3.885462E1,7.4212036E0,3.835455E0,1.4749878E1,2.0807127E1,0E0,0E0,0E0,0E0,0E0,0E0,0E0,0E0],"parents":[2147483647,0,0,1,1,2,2,3,3,4,4,5,5,6,6],"right_children":[2,4,6,8,10,12,14,-1,-1,-1,-1,-1,-1,-1,-1],"split_conditions":[4.845872E-1,1.9E1,1.2E1,4.0882325E-1,4.7E1,5.938312E-1,3.1E1,-7.47282E-2,-4.826513E-2,-1.5435754E-2,7.8324966E-2,-4.8993602E-2,-1.8021572E-2,-6.035906E-3,1.565749E-2],"split_indices":[1,0,0,1,0,1,0,0,0,0,0,0,0,0,0],"split_type":[0,0,0,0,0,0,0,0,0,0,0,0,0,0,0],"sum_hessian":[4.817766E3,6.5238086E2,4.1653853E3,4.451007E2,2.0728017E2,6.7475854E2,3.490627E3,2.0683229E2,2.382684E2,2.0380078E2,3.479386E0,2.381423E2,4.366162E2,2.972233E3,5.18394E2],"tree_param":{"num_deleted":"0","num_feature":"2","num_nodes":"15","size_leaf_vector":"1"}},{"base_weights":[-1.12420335E-1,-2.4895808E-1,1.4201567E-3,-4.3888885E-1,-1.1528157E-1,-2.8140435E-2,2.4012952E-1,-6.466383E-2,-3.2607663E-2,-1.4629659E-2,5.59142E-2,-8.213166E-3,6.361894E-3,2.1978674E-2,1.2587954E-1],"categories":[],"categories_nodes":[],"categories_segments":[],"categories_sizes":[],"default_left":[0,0,0,0,0,0,0,0,0,0,0,0,0,0,0],"id":35,"left_children":[1,3,5,7,9,11,13,-1,-1,-1,-1,-1,-1,-1,-1],"loss_changes":[7.399124E1,5.4901016E1,1.8331326E1,2.0734589E1,2.6681416E1,1.1457463E1,5.6552258E0,0E0,0E0,0E0,0E0,0E0,0E0,0E0,0E0],"parents":[2147483647,0,0,1,1,2,2,3,3,4,4,5,5,6,6],"right_children":[2,4,6,8,10,12,14,-1,-1,-1,-1,-1,-1,-1,-1],"split_conditions":[6.2643594E-1,1.5E1,7.519084E-1,4.845872E-1,4E1,2.1E1,5.6E1,-6.466383E-2,-3.2607663E-2,-1.4629659E-2,5.59142E-2,-8.213166E-3,6.361894E-3,2.1978674E-2,1.2587954E-1],"split_indices":[1,0,1,1,0,0,0,0,0,0,0,0,0,0,0],"split_type":[0,0,0,0,0,0,0,0,0,0,0,0,0,0,0],"sum_hessian":[4.7592383E3,2.1633625E3,2.5958757E3,8.9270416E2,1.2706584E3,2.3106218E3,2.8525394E2,3.1249557E2,5.802086E2,1.2155419E3,5.5116604E1,1.4547511E3,8.558708E2,2.808609E2,4.3930383E0],"tree_param":{"num_deleted":"0","num_feature":"2","num_nodes":"15","size_leaf_vector":"1"}},{"base_weights":[-1.0259367E-1,-4.0977943E-1,-5.7521056E-2,-5.5946714E-1,-1.1365608E-1,-2.545339E-1,-2.0772524E-2,-8.120115E-2,-4.760844E-2,-7.825773E-2,-8.449435E-3,-4.676716E-2,-1.6424045E-2,-2.5248176E-3,1.01615325E-1],"categories":[],"categories_nodes":[],"categories_segments":[],"categories_sizes":[],"default_left":[0,0,0,0,0,0,0,0,0,0,0,0,0,0,0],"id":36,"left_children":[1,3,5,7,9,11,13,-1,-1,-1,-1,-1,-1,-1,-1],"loss_changes":[6.512422E1,2.6615944E1,2.9710228E1,8.026955E0,3.9005976E0,1.2338936E1,1.6084381E1,0E0,0E0,0E0,0E0,0E0,0E0,0E0,0E0],"parents":[2147483647,0,0,1,1,2,2,3,3,4,4,5,5,6,6],"right_children":[2,4,6,8,10,12,14,-1,-1,-1,-1,-1,-1,-1,-1],"split_conditions":[4.845872E-1,1.9E1,1.2E1,1E1,2.895597E-1,5.8231854E-1,5.6E1,-8.120115E-2,-4.760844E-2,-7.825773E-2,-8.449435E-3,-4.676716E-2,-1.6424045E-2,-2.5248176E-3,1.01615325E-1],"split_indices":[1,0,0,0,1,1,0,0,0,0,0,0,0,0,0],"split_type":[0,0,0,0,0,0,0,0,0,0,0,0,0,0,0],"sum_hessian":[4.7042847E3,6.0089325E2,4.1033916E3,3.9854364E2,2.0234961E2,6.441434E2,3.459248E3,9.675624E1,3.017874E2,7.3736944E0,1.9497592E2,1.9043707E2,4.537063E2,3.4453528E3,1.389542E1],"tree_param":{"num_deleted":"0","num_feature":"2","num_nodes":"15","size_leaf_vector":"1"}},{"base_weights":[-9.348305E-2,-3.142402E-1,-3.8248952E-2,-5.57829E-1,-1.5113056E-1,-1.06379464E-1,5.1269285E-2,-7.228949E-2,-4.638697E-2,-4.3953817E-2,-9.616227E-3,-1.27598485E-2,3.19117E-2,1.9183357E-3,2.501451E-2],"categories":[],"categories_nodes":[],"categories_segments":[],"categories_sizes":[],"default_left":[0,0,0,0,0,0,0,0,0,0,0,0,0,0,0],"id":37,"left_children":[1,3,5,7,9,11,13,-1,-1,-1,-1,-1,-1,-1,-1],"loss_changes":[5.680173E1,3.695951E1,2.2742641E1,5.458313E0,8.832319E0,1.9156517E1,1.028041E1,0E0,0E0,0E0,0E0,0E0,0E0,0E0,0E0],"parents":[2147483647,0,0,1,1,2,2,3,3,4,4,5,5,6,6],"right_children":[2,4,6,8,10,12,14,-1,-1,-1,-1,-1,-1,-1,-1],"split_conditions":[5.318338E-1,1.4E1,6.8035775E-1,1E1,3.8726777E-1,3.7E1,7.585528E-1,-7.228949E-2,-4.638697E-2,-4.3953817E-2,-9.616227E-3,-1.27598485E-2,3.19117E-2,1.9183357E-3,2.501451E-2],"split_indices":[1,0,1,0,1,0,1,0,0,0,0,0,0,0,0],"split_type":[0,0,0,0,0,0,0,0,0,0,0,0,0,0,0],"sum_hessian":[4.6584155E3,9.3134973E2,3.7270657E3,3.7255463E2,5.587951E2,2.1162456E3,1.61082E3,1.3271317E2,2.3984146E2,8.833305E1,4.7046207E2,2.0163907E3,9.985495E1,1.3879839E3,2.2283601E2],"tree_param":{"num_deleted":"0","num_feature":"2","num_nodes":"15","size_leaf_vector":"1"}},{"base_weights":[-8.5156254E-2,-4.1477033E-1,-5.234756E-2,-5.7056594E-1,-4.655613E-2,-1.903773E-1,-4.793285E-3,-7.5192004E-2,-4.762334E-2,-3.041858E-2,8.469012E-3,-3.901792E-2,-1.035347E-2,-1.0991012E-3,7.440256E-2],"categories":[],"categories_nodes":[],"categories_segments":[],"categories_sizes":[],"default_left":[0,0,0,0,0,0,0,0,0,0,0,0,0,0,0],"id":38,"left_children":[1,3,5,7,9,11,13,-1,-1,-1,-1,-1,-1,-1,-1],"loss_changes":[4.9892277E1,2.3934532E1,2.7560314E1,4.6615143E0,4.261613E0,1.862801E1,1.4506585E1,0E0,0E0,0E0,0E0,0E0,0E0,0E0,0E0],"parents":[2147483647,0,0,1,1,2,2,3,3,4,4,5,5,6,6],"right_children":[2,4,6,8,10,12,14,-1,-1,-1,-1,-1,-1,-1,-1],"split_conditions":[4.5699325E-1,2E1,1.4E1,1.1E1,3.8726777E-1,5.8231854E-1,5.2E1,-7.5192004E-2,-4.762334E-2,-3.041858E-2,8.469012E-3,-3.901792E-2,-1.035347E-2,-1.0991012E-3,7.440256E-2],"split_indices":[1,0,0,0,1,1,0,0,0,0,0,0,0,0,0],"split_type":[0,0,0,0,0,0,0,0,0,0,0,0,0,0,0],"sum_hessian":[4.614594E3,4.1668695E2,4.197907E3,2.9241382E2,1.2427314E2,1.0749073E3,3.123E3,9.767086E1,1.9474297E2,4.149767E1,8.2775475E1,3.245986E2,7.503088E2,3.0983413E3,2.4658625E1],"tree_param":{"num_deleted":"0","num_feature":"2","num_nodes":"15","size_leaf_vector":"1"}},{"base_weights":[-7.748304E-2,-2.9531312E-1,-3.3833254E-2,-5.113474E-1,-1.3559152E-1,-9.996179E-2,4.8030626E-2,-7.511043E-2,-4.325198E-2,-4.6549134E-2,-8.099641E-3,-1.2122865E-2,3.1184662E-2,3.3912265E-3,3.1237293E-2],"categories":[],"categories_nodes":[],"categories_segments":[],"categories_sizes":[],"default_left":[0,0,0,0,0,0,0,0,0,0,0,0,0,0,0],"id":39,"left_children":[1,3,5,7,9,11,13,-1,-1,-1,-1,-1,-1,-1,-1],"loss_changes":[4.3510216E1,2.6290802E1,2.0652914E1,5.805481E0,7.8974905E0,1.851846E1,6.3525505E0,0E0,0E0,0E0,0E0,0E0,0E0,0E0,0E0],"parents":[2147483647,0,0,1,1,2,2,3,3,4,4,5,5,6,6],"right_children":[2,4,6,8,10,12,14,-1,-1,-1,-1,-1,-1,-1,-1],"split_conditions":[1.2E1,5.8231854E-1,6.648456E-1,4.1080123E-1,8E0,3.8E1,7.7920496E-1,-7.511043E-2,-4.325198E-2,-4.6549134E-2,-8.099641E-3,-1.2122865E-2,3.1184662E-2,3.3912265E-3,3.1237293E-2],"split_indices":[0,1,1,1,0,0,1,0,0,0,0,0,0,0,0],"split_type":[0,0,0,0,0,0,0,0,0,0,0,0,0,0,0],"sum_hessian":[4.5761055E3,7.6294354E2,3.8131619E3,3.233667E2,4.3957684E2,2.1091765E3,1.7039854E3,7.790066E1,2.4546605E2,6.1347633E1,3.7822922E2,2.0062731E3,1.0290354E2,1.6186619E3,8.532348E1],"tree_param":{"num_deleted":"0","num_feature":"2","num_nodes":"15","size_leaf_vector":"1"}},{"base_weights":[-7.047084E-2,-3.7391898E-1,-4.18755E-2,-5.291169E-1,-3.4361597E-2,-3.9652276E-1,-2.6864007E-2,-7.6517045E-2,-4.488602E-2,-2.7534524E-2,8.382557E-3,-4.739532E-2,3.3462334E-2,-6.3718394E-3,6.8172575E-3],"categories":[],"categories_nodes":[],"categories_segments":[],"categories_sizes":[],"default_left":[0,0,0,0,0,0,0,0,0,0,0,0,0,0,0],"id":40,"left_children":[1,3,5,7,9,11,13,-1,-1,-1,-1,-1,-1,-1,-1],"loss_changes":[3.9386684E1,2.0583458E1,2.2088223E1,4.7381973E0,3.5461965E0,9.697556E0,1.3956528E1,0E0,0E0,0E0,0E0,0E0,0E0,0E0,0E0],"parents":[2147483647,0,0,1,1,2,2,3,3,4,4,5,5,6,6],"right_children":[2,4,6,8,10,12,14,-1,-1,-1,-1,-1,-1,-1,-1],"split_conditions":[4.5699325E-1,2E1,9E0,3.376112E-1,3.8726777E-1,7.0320183E-1,2.4E1,-7.6517045E-2,-4.488602E-2,-2.7534524E-2,8.382557E-3,-4.739532E-2,3.3462334E-2,-6.3718394E-3,6.8172575E-3],"split_indices":[1,0,0,1,1,1,0,0,0,0,0,0,0,0,0],"split_type":[0,0,0,0,0,0,0,0,0,0,0,0,0,0,0],"sum_hessian":[4.539904E3,3.8993317E2,4.1499707E3,2.6723337E2,1.22699814E2,1.6749431E2,3.9824763E3,6.563923E1,2.0159413E2,3.9937504E1,8.276231E1,1.517729E2,1.5721406E1,2.8698877E3,1.1125886E3],"tree_param":{"num_deleted":"0","num_feature":"2","num_nodes":"15","size_leaf_vector":"1"}},{"base_weights":[-6.404826E-2,-1.640982E-1,1.2142277E-2,-2.8637385E-1,-4.5982383E-2,-9.870135E-3,1.8225282E-1,-5.9940338E-2,-2.2543533E-2,-7.5312043E-3,4.139134E-2,-5.0399764E-3,5.680844E-3,1.6646225E-2,1.0466359E-1],"categories":[],"categories_nodes":[],"categories_segments":[],"categories_sizes":[],"default_left":[0,0,0,0,0,0,0,0,0,0,0,0,0,0,0],"id":41,"left_children":[1,3,5,7,9,11,13,-1,-1,-1,-1,-1,-1,-1,-1],"loss_changes":[3.4373657E1,2.8140919E1,9.590301E0,1.813211E1,1.342184E1,6.132636E0,3.8309393E0,0E0,0E0,0E0,0E0,0E0,0E0,0E0,0E0],"parents":[2147483647,0,0,1,1,2,2,3,3,4,4,5,5,6,6],"right_children":[2,4,6,8,10,12,14,-1,-1,-1,-1,-1,-1,-1,-1],"split_conditions":[6.2643594E-1,1.7E1,7.519084E-1,4.278913E-1,4E1,2.1E1,5.6E1,-5.9940338E-2,-2.2543533E-2,-7.5312043E-3,4.139134E-2,-5.0399764E-3,5.680844E-3,1.6646225E-2,1.0466359E-1],"split_indices":[1,0,1,1,0,0,0,0,0,0,0,0,0,0,0],"split_type":[0,0,0,0,0,0,0,0,0,0,0,0,0,0,0],"sum_hessian":[4.5080254E3,1.948366E3,2.5596592E3,9.566254E2,9.9174054E2,2.2672214E3,2.924379E2,1.5444336E2,8.0218207E2,9.330706E2,5.866995E1,1.4102594E3,8.5696204E2,2.8836267E2,4.075239E0],"tree_param":{"num_deleted":"0","num_feature":"2","num_nodes":"15","size_leaf_vector":"1"}},{"base_weights":[-5.8159046E-2,-4.9973008E-1,-4.302081E-2,-6.325988E-1,-2.636728E-1,-4.0041563E-1,-2.7822843E-2,-8.840197E-2,-5.7110686E-2,-6.876474E-2,-1.7532276E-2,-5.4402918E-2,5.905793E-4,-7.27693E-3,4.525681E-3],"categories":[],"categories_nodes":[],"categories_segments":[],"categories_sizes":[],"default_left":[0,0,0,0,0,0,0,0,0,0,0,0,0,0,0],"id":42,"left_children":[1,3,5,7,9,11,13,-1,-1,-1,-1,-1,-1,-1,-1],"loss_changes":[2.9908405E1,4.485092E0,2.350867E1,9.5127106E-1,1.9445407E0,1.0305475E1,1.36496935E1,0E0,0E0,0E0,0E0,0E0,0E0,0E0,0E0],"parents":[2147483647,0,0,1,1,2,2,3,3,4,4,5,5,6,6],"right_children":[2,4,6,8,10,12,14,-1,-1,-1,-1,-1,-1,-1,-1],"split_conditions":[3.8726777E-1,1.7E1,9E0,2.5809366E-1,2.895597E-1,6.54047E-1,6.8035775E-1,-8.840197E-2,-5.7110686E-2,-6.876474E-2,-1.7532276E-2,-5.4402918E-2,5.905793E-4,-7.27693E-3,4.525681E-3],"split_indices":[1,0,0,1,1,1,1,0,0,0,0,0,0,0,0],"split_type":[0,0,0,0,0,0,0,0,0,0,0,0,0,0,0],"sum_hessian":[4.4764375E3,1.4731642E2,4.329121E3,9.318555E1,5.413087E1,1.7554991E2,4.1535713E3,1.5683708E1,7.750184E1,8.1650715E0,4.59658E1,1.2945528E2,4.6094627E1,2.5718196E3,1.5817517E3],"tree_param":{"num_deleted":"0","num_feature":"2","num_nodes":"15","size_leaf_vector":"1"}},{"base_weights":[-5.2804597E-2,-2.3210876E-1,-1.9187555E-2,-4.344761E-1,-9.688E-2,-2.1743415E-2,1.1171556E0,-6.805491E-2,-3.6336344E-2,-3.959363E-2,-5.137653E-3,-7.154669E-3,3.7680422E-3,6.488895E-2,1.4722298E-1],"categories":[],"categories_nodes":[],"categories_segments":[],"categories_sizes":[],"default_left":[0,0,0,0,0,0,0,0,0,0,0,0,0,0,0],"id":43,"left_children":[1,3,5,7,9,11,13,-1,-1,-1,-1,-1,-1,-1,-1],"loss_changes":[2.6834103E1,1.9193413E1,1.0917443E1,4.674629E0,5.7308683E0,1.1080754E1,4.4735432E-1,0E0,0E0,0E0,0E0,0E0,0E0,0E0,0E0],"parents":[2147483647,0,0,1,1,2,2,3,3,4,4,5,5,6,6],"right_children":[2,4,6,8,10,12,14,-1,-1,-1,-1,-1,-1,-1,-1],"split_conditions":[1.2E1,5.8231854E-1,6E1,4.1080123E-1,8E0,6.648456E-1,6.7E1,-6.805491E-2,-3.6336344E-2,-3.959363E-2,-5.137653E-3,-7.154669E-3,3.7680422E-3,6.488895E-2,1.4722298E-1],"split_indices":[0,1,0,1,0,1,0,0,0,0,0,0,0,0,0],"split_type":[0,0,0,0,0,0,0,0,0,0,0,0,0,0,0],"sum_hessian":[4.451555E3,7.0190106E2,3.749654E3,2.802697E2,4.2163135E2,3.7422178E3,7.436123E0,6.091479E1,2.1935492E2,5.46647E1,3.6696664E2,2.0358025E3,1.7064153E3,4.4262857E0,3.009837E0],"tree_param":{"num_deleted":"0","num_feature":"2","num_nodes":"15","size_leaf_vector":"1"}},{"base_weights":[-4.7850415E-2,-4.6003962E-1,-3.4616526E-2,-5.734605E-1,-2.0134142E-1,-4.7880158E-1,-2.47755E-2,-7.106229E-2,-4.050918E-2,-7.1310095E-2,-1.0679203E-2,-6.253829E-2,-8.658403E-3,-6.7448863E-3,4.23283E-3],"categories":[],"categories_nodes":[],"categories_segments":[],"categories_sizes":[],"default_left":[0,0,0,0,0,0,0,0,0,0,0,0,0,0,0],"id":44,"left_children":[1,3,5,7,9,11,13,-1,-1,-1,-1,-1,-1,-1,-1],"loss_changes":[2.4142433E1,3.9245262E0,1.8749863E1,1.9101906E0,2.029035E0,5.291231E0,1.2030055E1,0E0,0E0,0E0,0E0,0E0,0E0,0E0,0E0],"parents":[2147483647,0,0,1,1,2,2,3,3,4,4,5,5,6,6],"right_children":[2,4,6,8,10,12,14,-1,-1,-1,-1,-1,-1,-1,-1],"split_conditions":[3.8726777E-1,1.9E1,8E0,3.376112E-1,2.895597E-1,6.54047E-1,2.1E1,-7.106229E-2,-4.050918E-2,-7.1310095E-2,-1.0679203E-2,-6.253829E-2,-8.658403E-3,-6.7448863E-3,4.23283E-3],"split_indices":[1,0,0,1,1,1,0,0,0,0,0,0,0,0,0],"split_type":[0,0,0,0,0,0,0,0,0,0,0,0,0,0,0],"sum_hessian":[4.427773E3,1.3668709E2,4.2910854E3,9.417936E1,4.2507717E1,9.19765E1,4.1991094E3,5.012453E1,4.4054832E1,5.6085725E0,3.6899147E1,6.652137E1,2.5455135E1,2.5667983E3,1.6323108E3],"tree_param":{"num_deleted":"0","num_feature":"2","num_nodes":"15","size_leaf_vector":"1"}},{"base_weights":[-4.3414433E-2,-2.4622206E-1,-1.8980483E-2,-4.6865594E-1,-1.1511401E-1,-7.528206E-1,-1.5430538E-2,-6.836244E-2,-3.5574626E-2,-4.473416E-2,-7.551516E-3,-7.909097E-2,-7.1382285E-3,-2.7696036E-3,1.80964E-2],"categories":[],"categories_nodes":[],"categories_segments":[],"categories_sizes":[],"default_left":[0,0,0,0,0,0,0,0,0,0,0,0,0,0,0],"id":45,"left_children":[1,3,5,7,9,11,13,-1,-1,-1,-1,-1,-1,-1,-1],"loss_changes":[2.1837193E1,1.3764881E1,1.0239023E1,4.014057E0,3.9057655E0,4.3467522E-1,9.440402E0,0E0,0E0,0E0,0E0,0E0,0E0,0E0,0E0],"parents":[2147483647,0,0,1,1,2,2,3,3,4,4,5,5,6,6],"right_children":[2,4,6,8,10,12,14,-1,-1,-1,-1,-1,-1,-1,-1],"split_conditions":[4.845872E-1,1.4E1,6E0,1E1,3.376112E-1,7.205135E-1,7.585528E-1,-6.836244E-2,-3.5574626E-2,-4.473416E-2,-7.551516E-3,-7.909097E-2,-7.1382285E-3,-2.7696036E-3,1.80964E-2],"split_indices":[1,0,0,0,1,1,1,0,0,0,0,0,0,0,0],"split_type":[0,0,0,0,0,0,0,0,0,0,0,0,0,0,0],"sum_hessian":[4.406697E3,4.728502E2,3.933847E3,1.7439775E2,2.9845245E2,1.7922224E1,3.9159246E3,5.8315834E1,1.1608192E2,3.0688063E1,2.6776437E2,1.6821348E1,1.1008772E0,3.6865464E3,2.293782E2],"tree_param":{"num_deleted":"0","num_feature":"2","num_nodes":"15","size_leaf_vector":"1"}},{"base_weights":[-3.936393E-2,-4.1543034E-1,-2.8111884E-2,-6.2818027E-1,-2.7141E-1,-4.387476E-1,-1.959129E-2,-8.974555E-2,-5.5260014E-2,-6.9668435E-2,-2.0813506E-2,-5.8860242E-2,-6.3850195E-3,-2.5383078E-3,3.8127545E-2],"categories":[],"categories_nodes":[],"categories_segments":[],"categories_sizes":[],"default_left":[0,0,0,0,0,0,0,0,0,0,0,0,0,0,0],"id":46,"left_children":[1,3,5,7,9,11,13,-1,-1,-1,-1,-1,-1,-1,-1],"loss_changes":[1.8560925E1,3.734192E0,1.4905918E1,5.3554726E-1,1.9472866E0,4.8278904E0,9.707734E0,0E0,0E0,0E0,0E0,0E0,0E0,0E0,0E0],"parents":[2147483647,0,0,1,1,2,2,3,3,4,4,5,5,6,6],"right_children":[2,4,6,8,10,12,14,-1,-1,-1,-1,-1,-1,-1,-1],"split_conditions":[3.8726777E-1,1.3E1,8E0,2.5809366E-1,2.6743805E-1,6.54047E-1,4.8E1,-8.974555E-2,-5.5260014E-2,-6.9668435E-2,-2.0813506E-2,-5.8860242E-2,-6.3850195E-3,-2.5383078E-3,3.8127545E-2],"split_indices":[1,0,0,1,1,1,0,0,0,0,0,0,0,0,0],"split_type":[0,0,0,0,0,0,0,0,0,0,0,0,0,0,0],"sum_hessian":[4.3881133E3,1.26436195E2,4.2616772E3,4.968246E1,7.675373E1,8.5604805E1,4.1760723E3,8.505394E0,4.1177067E1,8.644322E0,6.810941E1,6.075118E1,2.4853624E1,4.1175186E3,5.8553898E1],"tree_param":{"num_deleted":"0","num_feature":"2","num_nodes":"15","size_leaf_vector":"1"}},{"base_weights":[-3.5682492E-2,-1.964375E-1,-1.1549952E-2,-4.2231637E-1,-1.01737626E-1,-3.952321E-2,7.029099E-2,-5.8594596E-2,-3.1734373E-2,-4.932793E-2,-8.181011E-3,-4.615647E-3,4.198022E-2,1.82335E-1,6.516956E-3],"categories":[],"categories_nodes":[],"categories_segments":[],"categories_sizes":[],"default_left":[0,0,0,0,0,0,0,0,0,0,0,0,0,0,0],"id":47,"left_children":[1,3,5,7,9,11,13,-1,-1,-1,-1,-1,-1,-1,-1],"loss_changes":[1.6959171E1,1.2162891E1,8.708145E0,2.7039146E0,3.1069274E0,8.655737E0,8.580927E0,0E0,0E0,0E0,0E0,0E0,0E0,0E0,0E0],"parents":[2147483647,0,0,1,1,2,2,3,3,4,4,5,5,6,6],"right_children":[2,4,6,8,10,12,14,-1,-1,-1,-1,-1,-1,-1,-1],"split_conditions":[5.030074E-1,1.3E1,2.5E1,1E1,3.0653772E-1,7.7920496E-1,5.044428E-1,-5.8594596E-2,-3.1734373E-2,-4.932793E-2,-8.181011E-3,-4.615647E-3,4.198022E-2,1.82335E-1,6.516956E-3],"split_indices":[1,0,0,0,1,1,1,0,0,0,0,0,0,0,0],"split_type":[0,0,0,0,0,0,0,0,0,0,0,0,0,0,0],"sum_hessian":[4.371152E3,5.6961487E2,3.801537E3,1.6724388E2,4.0237094E2,2.8335469E3,9.679901E2,6.357006E1,1.0367383E2,1.8336494E1,3.8403445E2,2.794096E3,3.9450867E1,1.7855186E0,9.662046E2],"tree_param":{"num_deleted":"0","num_feature":"2","num_nodes":"15","size_leaf_vector":"1"}},{"base_weights":[-3.2285877E-2,-1.020733E-1,1.7704453E-2,-1.9904369E-1,-1.5849842E-2,1.5009036E-2,1.0098982E0,-4.6688788E-2,-1.5624664E-2,-4.1556614E-3,3.6657017E-2,-5.827197E-4,9.619816E-3,1.2251165E-1,4.80857E-2],"categories":[],"categories_nodes":[],"categories_segments":[],"categories_sizes":[],"default_left":[0,0,0,0,0,0,0,0,0,0,0,0,0,0,0],"id":48,"left_children":[1,3,5,7,9,11,13,-1,-1,-1,-1,-1,-1,-1,-1],"loss_changes":[1.5196175E1,1.5196341E1,6.7735763E0,9.73394E0,9.485695E0,4.2848544E0,1.9222116E-1,0E0,0E0,0E0,0E0,0E0,0E0,0E0,0E0],"parents":[2147483647,0,0,1,1,2,2,3,3,4,4,5,5,6,6],"right_children":[2,4,6,8,10,12,14,-1,-1,-1,-1,-1,-1,-1,-1],"split_conditions":[6.2643594E-1,1.7E1,6E1,4.278913E-1,4E1,7.348752E-1,7.3166645E-1,-4.6688788E-2,-1.5624664E-2,-4.1556614E-3,3.6657017E-2,-5.827197E-4,9.619816E-3,1.2251165E-1,4.80857E-2],"split_indices":[1,0,0,1,0,1,1,0,0,0,0,0,0,0,0],"split_type":[0,0,0,0,0,0,0,0,0,0,0,0,0,0,0],"sum_hessian":[4.354314E3,1.8168777E3,2.5374365E3,8.5453E2,9.623476E2,2.5315742E3,5.862208E0,1.16363434E2,7.381666E2,9.025672E2,5.9780415E1,2.0152996E3,5.1627466E2,3.2317684E0,2.6304393E0],"tree_param":{"num_deleted":"0","num_feature":"2","num_nodes":"15","size_leaf_vector":"1"}},{"base_weights":[-2.9191043E-2,-2.4606353E-1,-1.4229453E-2,-5.9122854E-1,-1.2457177E-1,-3.05022E-1,-6.973044E-3,-6.708435E-2,-4.658626E-2,-6.759367E-2,-8.2443105E-3,-7.1304046E-2,-2.3662893E-2,-8.946704E-4,9.434723E-2],"categories":[],"categories_nodes":[],"categories_segments":[],"categories_sizes":[],"default_left":[0,0,0,0,0,0,0,0,0,0,0,0,0,0,0],"id":49,"left_children":[1,3,5,7,9,11,13,-1,-1,-1,-1,-1,-1,-1,-1],"loss_changes":[1.4075164E1,1.166608E1,8.5648E0,4.122734E-1,4.7835417E0,2.5889492E0,7.4408092E0,0E0,0E0,0E0,0E0,0E0,0E0,0E0,0E0],"parents":[2147483647,0,0,1,1,2,2,3,3,4,4,5,5,6,6],"right_children":[2,4,6,8,10,12,14,-1,-1,-1,-1,-1,-1,-1,-1],"split_conditions":[1E1,5.226727E-1,3.8726777E-1,4.6828553E-1,6E0,2.6743805E-1,6E1,-6.708435E-2,-4.658626E-2,-6.759367E-2,-8.2443105E-3,-7.1304046E-2,-2.3662893E-2,-8.946704E-4,9.434723E-2],"split_indices":[0,1,1,1,0,1,0,0,0,0,0,0,0,0,0],"split_type":[0,0,0,0,0,0,0,0,0,0,0,0,0,0,0],"sum_hessian":[4.3378965E3,2.7895264E2,4.058944E3,7.1617325E1,2.0733531E2,9.7821495E1,3.9611226E3,4.1139923E1,3.0477404E1,1.3649603E1,1.936857E2,1.2690001E1,8.513149E1,3.9539026E3,7.2199407E0],"tree_param":{"num_deleted":"0","num_feature":"2","num_nodes":"15","size_leaf_vector":"1"}},{"base_weights":[-2.6438609E-2,-1.5387614E-1,-4.3355585E-3,-3.210725E-1,-5.6594677E-2,-6.2673506E-3,8.757373E-1,-9.054371E-2,-2.9346323E-2,-7.2307712E-3,6.5971896E-2,-4.2768954E-3,3.6074228E-3,4.3584E-2,1.2468871E-1],"categories":[],"categories_nodes":[],"categories_segments":[],"categories_sizes":[],"default_left":[0,0,0,0,0,0,0,0,0,0,0,0,0,0,0],"id":50,"left_children":[1,3,5,7,9,11,13,-1,-1,-1,-1,-1,-1,-1,-1],"loss_changes":[1.2186308E1,1.0382867E1,6.2757397E0,3.5257244E0,4.6114635E0,5.6907234E0,7.765684E-1,0E0,0E0,0E0,0E0,0E0,0E0,0E0,0E0],"parents":[2147483647,0,0,1,1,2,2,3,3,4,4,5,5,6,6],"right_children":[2,4,6,8,10,12,14,-1,-1,-1,-1,-1,-1,-1,-1],"split_conditions":[1.2E1,5.8231854E-1,6E1,6E0,7.585528E-1,6.648456E-1,6.7E1,-9.054371E-2,-2.9346323E-2,-7.2307712E-3,6.5971896E-2,-4.2768954E-3,3.6074228E-3,4.3584E-2,1.2468871E-1],"split_indices":[0,1,0,0,1,1,0,0,0,0,0,0,0,0,0],"split_type":[0,0,0,0,0,0,0,0,0,0,0,0,0,0,0],"sum_hessian":[4.325596E3,6.384695E2,3.6871267E3,2.3399867E2,4.044708E2,3.6800417E3,7.084949E0,9.122445E0,2.2487624E2,3.9666855E2,7.8022556E0,1.9763073E3,1.7037345E3,4.2371984E0,2.8477507E0],"tree_param":{"num_deleted":"0","num_feature":"2","num_nodes":"15","size_leaf_vector":"1"}},{"base_weights":[-2.3879644E-2,-3.8223693E-1,-1.6914925E-2,-5.270631E-1,-2.9811434E-2,-3.1283894E-1,-9.32309E-3,-8.592339E-2,-4.1640125E-2,-3.7131432E-2,7.6880106E-3,-7.331472E-2,-2.4215369E-2,-3.96542E-3,3.8618464E-3],"categories":[],"categories_nodes":[],"categories_segments":[],"categories_sizes":[],"default_left":[0,0,0,0,0,0,0,0,0,0,0,0,0,0,0],"id":51,"left_children":[1,3,5,7,9,11,13,-1,-1,-1,-1,-1,-1,-1,-1],"loss_changes":[1.0760809E1,4.179784E0,9.506647E0,1.781517E0,9.394632E-1,2.9670973E0,6.0041595E0,0E0,0E0,0E0,0E0,0E0,0E0,0E0,0E0],"parents":[2147483647,0,0,1,1,2,2,3,3,4,4,5,5,6,6],"right_children":[2,4,6,8,10,12,14,-1,-1,-1,-1,-1,-1,-1,-1],"split_conditions":[8E0,6.54047E-1,3.8726777E-1,6E0,6E0,2.6743805E-1,6.8035775E-1,-8.592339E-2,-4.1640125E-2,-3.7131432E-2,7.6880106E-3,-7.331472E-2,-2.4215369E-2,-3.96542E-3,3.8618464E-3],"split_indices":[0,1,1,0,0,1,1,0,0,0,0,0,0,0,0],"split_type":[0,0,0,0,0,0,0,0,0,0,0,0,0,0,0],"sum_hessian":[4.313057E3,8.119949E1,4.231858E3,5.7198677E1,2.4000818E1,1.0484564E2,4.127012E3,1.2603265E1,4.459541E1,5.122914E0,1.8877903E1,1.3744747E1,9.110089E1,2.527877E3,1.5991353E3],"tree_param":{"num_deleted":"0","num_feature":"2","num_nodes":"15","size_leaf_vector":"1"}},{"base_weights":[-2.164277E-2,-1.0411892E-1,5.088394E-3,-2.5493985E-1,-2.5688494E-2,3.0797012E-3,8.239878E-1,-8.879815E-2,-2.3867445E-2,-4.1327015E-3,5.685557E-2,-2.2081078E-3,3.949549E-3,4.0424775E-2,1.1849083E-1],"categories":[],"categories_nodes":[],"categories_segments":[],"categories_sizes":[],"default_left":[0,0,0,0,0,0,0,0,0,0,0,0,0,0,0],"id":52,"left_children":[1,3,5,7,9,11,13,-1,-1,-1,-1,-1,-1,-1,-1],"loss_changes":[9.488971E0,1.2455234E1,5.3455276E0,3.4980183E0,6.4746966E0,2.9734745E0,7.25647E-1,0E0,0E0,0E0,0E0,0E0,0E0,0E0,0E0],"parents":[2147483647,0,0,1,1,2,2,3,3,4,4,5,5,6,6],"right_children":[2,4,6,8,10,12,14,-1,-1,-1,-1,-1,-1,-1,-1],"split_conditions":[1.4E1,5.8231854E-1,6E1,6E0,7.585528E-1,2.3E1,6.7E1,-8.879815E-2,-2.3867445E-2,-4.1327015E-3,5.685557E-2,-2.2081078E-3,3.949549E-3,4.0424775E-2,1.1849083E-1],"split_indices":[0,1,0,0,1,0,0,0,0,0,0,0,0,0,0],"split_type":[0,0,0,0,0,0,0,0,0,0,0,0,0,0,0],"sum_hessian":[4.302765E3,1.0524985E3,3.2502668E3,3.5930603E2,6.931925E2,3.243315E3,6.951823E0,7.6582346E0,3.516478E2,6.763244E2,1.6868141E1,1.918298E3,1.325017E3,4.194171E0,2.7576523E0],"tree_param":{"num_deleted":"0","num_feature":"2","num_nodes":"15","size_leaf_vector":"1"}},{"base_weights":[-1.9542543E-2,-4.4579247E-1,-1.4537453E-2,-5.459636E-1,5.4219556E-1,-7.067351E-1,-1.1858725E-2,-7.6486014E-2,-4.4855773E-2,7.5374156E-2,-1.0000221E-2,-8.971352E-2,-3.974147E-2,-4.0473114E-3,3.4417142E-3],"categories":[],"categories_nodes":[],"categories_segments":[],"categories_sizes":[],"default_left":[0,0,0,0,0,0,0,0,0,0,0,0,0,0,0],"id":53,"left_children":[1,3,5,7,9,11,13,-1,-1,-1,-1,-1,-1,-1,-1],"loss_changes":[9.151862E0,5.2234287E0,7.860905E0,6.3138676E-1,7.661942E-1,6.060095E-1,5.600808E0,0E0,0E0,0E0,0E0,0E0,0E0,0E0,0E0],"parents":[2147483647,0,0,1,1,2,2,3,3,4,4,5,5,6,6],"right_children":[2,4,6,8,10,12,14,-1,-1,-1,-1,-1,-1,-1,-1],"split_conditions":[3.376112E-1,2.7E1,6E0,1.1E1,3.4E1,6.091411E-1,6.8035775E-1,-7.6486014E-2,-4.4855773E-2,7.5374156E-2,-1.0000221E-2,-8.971352E-2,-3.974147E-2,-4.0473114E-3,3.4417142E-3],"split_indices":[1,0,0,0,0,1,1,0,0,0,0,0,0,0,0],"split_type":[0,0,0,0,0,0,0,0,0,0,0,0,0,0,0],"sum_hessian":[4.2918E3,4.8787975E1,4.2430117E3,4.4702984E1,4.0849924E0,1.5343478E1,4.2276685E3,1.165618E1,3.3046803E1,2.9421349E0,1.1428577E0,8.321121E0,7.022356E0,2.6124202E3,1.6152482E3],"tree_param":{"num_deleted":"0","num_feature":"2","num_nodes":"15","size_leaf_vector":"1"}},{"base_weights":[-1.7698161E-2,-3.3677718E-1,-1.1879946E-2,-4.6281716E-1,2.2193309E-2,-2.694698E-1,-5.6303674E-3,-7.211731E-2,-3.678997E-2,-4.205681E-2,1.5115936E-2,-6.9639035E-2,-2.0308416E-2,-9.917144E-4,2.8601615E-2],"categories":[],"categories_nodes":[],"categories_segments":[],"categories_sizes":[],"default_left":[0,0,0,0,0,0,0,0,0,0,0,0,0,0,0],"id":54,"left_children":[1,3,5,7,9,11,13,-1,-1,-1,-1,-1,-1,-1,-1],"loss_changes":[7.949896E0,3.4800014E0,6.7738156E0,1.1276798E0,1.2560318E0,2.6833906E0,5.141328E0,0E0,0E0,0E0,0E0,0E0,0E0,0E0,0E0],"parents":[2147483647,0,0,1,1,2,2,3,3,4,4,5,5,6,6],"right_children":[2,4,6,8,10,12,14,-1,-1,-1,-1,-1,-1,-1,-1],"split_conditions":[8E0,6.648456E-1,3.8726777E-1,4.902086E-1,6E0,2.6743805E-1,4.8E1,-7.211731E-2,-3.678997E-2,-4.205681E-2,1.5115936E-2,-6.9639035E-2,-2.0308416E-2,-9.917144E-4,2.8601615E-2],"split_indices":[0,1,1,1,0,1,0,0,0,0,0,0,0,0,0],"split_type":[0,0,0,0,0,0,0,0,0,0,0,0,0,0,0],"sum_hessian":[4.283419E3,7.568822E1,4.2077305E3,5.5804962E1,1.9883257E1,9.867109E1,4.1090596E3,1.3220953E1,4.2584007E1,3.975082E0,1.5908175E1,1.2001346E1,8.666975E1,4.0504893E3,5.857026E1],"tree_param":{"num_deleted":"0","num_feature":"2","num_nodes":"15","size_leaf_vector":"1"}},{"base_weights":[-1.6031843E-2,-1.7707387E-1,-5.735528E-3,-5.076226E-1,-7.496604E-2,-6.7499443E-3,1.1168345E-1,-5.9493214E-2,-3.783389E-2,-1.3507934E-2,2.4025666E-2,-6.264671E-2,-5.110522E-4],"categories":[],"categories_nodes":[],"categories_segments":[],"categories_sizes":[],"default_left":[0,0,0,0,0,0,0,0,0,0,0,0,0],"id":55,"left_children":[1,3,5,7,9,11,-1,-1,-1,-1,-1,-1,-1],"loss_changes":[7.089776E0,8.634337E0,4.5857897E0,4.574461E-1,3.77453E0,4.078768E0,0E0,0E0,0E0,0E0,0E0,0E0,0E0],"parents":[2147483647,0,0,1,1,2,2,3,3,4,4,5,5],"right_children":[2,4,6,8,10,12,-1,-1,-1,-1,-1,-1,-1],"split_conditions":[1E1,5.226727E-1,6.7E1,4.6828553E-1,7.0320183E-1,2.6743805E-1,1.1168345E-1,-5.9493214E-2,-3.783389E-2,-1.3507934E-2,2.4025666E-2,-6.264671E-2,-5.110522E-4],"split_indices":[0,1,0,1,1,1,0,0,0,0,0,0,0],"split_type":[0,0,0,0,0,0,0,0,0,0,0,0,0],"sum_hessian":[4.275355E3,2.5594751E2,4.0194075E3,5.946686E1,1.9648064E2,4.0167717E3,2.6357884E0,3.3345673E1,2.612119E1,1.6549252E2,3.098812E1,9.592493E0,4.0071792E3],"tree_param":{"num_deleted":"0","num_feature":"2","num_nodes":"13","size_leaf_vector":"1"}},{"base_weights":[-1.44864125E-2,-6.7750907E-1,-1.2151325E-2,-8.856996E-2,-3.5126713E-1,-3.8203326E-1,-8.221921E-3,-1.2110615E-2,-5.224386E-2,-4.87259E-2,5.186656E-2,-3.496668E-3,3.3407218E-3],"categories":[],"categories_nodes":[],"categories_segments":[],"categories_sizes":[],"default_left":[0,0,0,0,0,0,0,0,0,0,0,0,0],"id":56,"left_children":[1,3,5,-1,7,9,11,-1,-1,-1,-1,-1,-1],"loss_changes":[6.60208E0,7.053876E-1,6.182113E0,0E0,2.3171002E-1,4.4904227E0,4.690596E0,0E0,0E0,0E0,0E0,0E0,0E0],"parents":[2147483647,0,0,1,1,2,2,4,4,5,5,6,6],"right_children":[2,4,6,-1,8,10,12,-1,-1,-1,-1,-1,-1],"split_conditions":[6E0,6.091411E-1,3.376112E-1,-8.856996E-2,6.785526E-1,2.7E1,2.1E1,-1.2110615E-2,-5.224386E-2,-4.87259E-2,5.186656E-2,-3.496668E-3,3.3407218E-3],"split_indices":[0,1,1,0,1,0,0,0,0,0,0,0,0],"split_type":[0,0,0,0,0,0,0,0,0,0,0,0,0],"sum_hessian":[4.268634E3,1.3966105E1,4.2546675E3,7.478721E0,6.487385E0,4.3712444E1,4.210955E3,3.495189E0,2.9921958E0,3.955087E1,4.161578E0,2.5639182E3,1.6470367E3],"tree_param":{"num_deleted":"0","num_feature":"2","num_nodes":"13","size_leaf_vector":"1"}},{"base_weights":[-1.31184E-2,-6.578991E-1,-1.0968003E-2,-8.759029E-2,-3.334893E-1,-1.3822716E-1,-8.2664384E-4,-1.1277141E-2,-5.0228804E-2,-2.5304118E-2,1.2851661E-3,-3.4696478E-4,4.112671E-2],"categories":[],"categories_nodes":[],"categories_segments":[],"categories_sizes":[],"default_left":[0,0,0,0,0,0,0,0,0,0,0,0,0],"id":57,"left_children":[1,3,5,-1,7,9,11,-1,-1,-1,-1,-1,-1],"loss_changes":[5.903272E0,7.08797E-1,5.4843683E0,0E0,2.1544051E-1,5.443874E0,4.2894382E0,0E0,0E0,0E0,0E0,0E0,0E0],"parents":[2147483647,0,0,1,1,2,2,4,4,5,5,6,6],"right_children":[2,4,6,-1,8,10,12,-1,-1,-1,-1,-1,-1],"split_conditions":[6E0,6.091411E-1,4.6341506E-1,-8.759029E-2,6.785526E-1,1.9E1,5.2E1,-1.1277141E-2,-5.0228804E-2,-2.5304118E-2,1.2851661E-3,-3.4696478E-4,4.112671E-2],"split_indices":[0,1,1,0,1,0,0,0,0,0,0,0,0],"split_type":[0,0,0,0,0,0,0,0,0,0,0,0,0],"sum_hessian":[4.2617764E3,1.3152505E1,4.248624E3,6.8495855E0,6.3029194E0,3.1265338E2,3.9359705E3,3.4542682E0,2.8486512E0,1.7726442E2,1.3538895E2,3.911873E3,2.4097603E1],"tree_param":{"num_deleted":"0","num_feature":"2","num_nodes":"13","size_leaf_vector":"1"}},{"base_weights":[-1.1874457E-2,-9.922768E-2,2.49538E-3,-2.2741678E-1,-3.3180643E-2,1.4953443E-3,1.04860045E-1,-6.383385E-2,-1.9670151E-2,-4.6288488E-3,4.9678616E-2,-1.0114762E-3,6.2055136E-3],"categories":[],"categories_nodes":[],"categories_segments":[],"categories_sizes":[],"default_left":[0,0,0,0,0,0,0,0,0,0,0,0,0],"id":58,"left_children":[1,3,5,7,9,11,-1,-1,-1,-1,-1,-1,-1],"loss_changes":[5.3433795E0,5.083649E0,3.8234305E0,2.4530678E0,2.787998E0,2.5696337E0,0E0,0E0,0E0,0E0,0E0,0E0,0E0],"parents":[2147483647,0,0,1,1,2,2,3,3,4,4,5,5],"right_children":[2,4,6,8,10,12,-1,-1,-1,-1,-1,-1,-1],"split_conditions":[1.2E1,5.810028E-1,6.7E1,3.376112E-1,7.585528E-1,7.2888845E-1,1.04860045E-1,-6.383385E-2,-1.9670151E-2,-4.6288488E-3,4.9678616E-2,-1.0114762E-3,6.2055136E-3],"split_indices":[0,1,0,1,1,1,0,0,0,0,0,0,0],"split_type":[0,0,0,0,0,0,0,0,0,0,0,0,0],"sum_hessian":[4.2556226E3,6.003333E2,3.655289E3,2.0330339E2,3.970299E2,3.6527986E3,2.490503E0,1.276364E1,1.9053975E2,3.8833768E2,8.692225E0,3.065865E3,5.8693353E2],"tree_param":{"num_deleted":"0","num_feature":"2","num_nodes":"13","size_leaf_vector":"1"}},{"base_weights":[-1.0704139E-2,-6.346699E-1,-8.74523E-3,-8.633482E-2,-3.1570703E-1,-3.3499026E-1,-5.5128685E-3,-1.0174283E-2,-4.8380088E-2,-4.4031918E-2,4.5739114E-2,-1.2625493E-3,1.1289563E-2],"categories":[],"categories_nodes":[],"categories_segments":[],"categories_sizes":[],"default_left":[0,0,0,0,0,0,0,0,0,0,0,0,0],"id":59,"left_children":[1,3,5,-1,7,9,11,-1,-1,-1,-1,-1,-1],"loss_changes":[5.1897798E0,6.96692E-1,4.467504E0,0E0,2.0704687E-1,3.67022E0,3.5366497E0,0E0,0E0,0E0,0E0,0E0,0E0],"parents":[2147483647,0,0,1,1,2,2,4,4,5,5,6,6],"right_children":[2,4,6,-1,8,10,12,-1,-1,-1,-1,-1,-1],"split_conditions":[6E0,6.091411E-1,3.376112E-1,-8.633482E-2,6.785526E-1,2.7E1,7.585528E-1,-1.0174283E-2,-4.8380088E-2,-4.4031918E-2,4.5739114E-2,-1.2625493E-3,1.1289563E-2],"split_indices":[0,1,1,0,1,0,1,0,0,0,0,0,0],"split_type":[0,0,0,0,0,0,0,0,0,0,0,0,0],"sum_hessian":[4.249481E3,1.2288438E1,4.2371924E3,6.1631055E0,6.125333E0,4.056235E1,4.19663E3,3.4012306E0,2.7241023E0,3.6195324E1,4.3670278E0,3.9596719E3,2.369583E2],"tree_param":{"num_deleted":"0","num_feature":"2","num_nodes":"13","size_leaf_vector":"1"}},{"base_weights":[-9.6935555E-3,-2.6689634E-1,-5.4111546E-3,-3.892408E-1,4.624113E-2,-7.394279E-2,7.957964E-3,-6.531099E-2,-3.0306607E-2,3.9134067E-2,-1.02982E-2,-2.0656755E-2,-2.0204003E-3,5.453961E-2,6.0876535E-4],"categories":[],"categories_nodes":[],"categories_segments":[],"categories_sizes":[],"default_left":[0,0,0,0,0,0,0,0,0,0,0,0,0,0,0],"id":60,"left_children":[1,3,5,7,9,11,13,-1,-1,-1,-1,-1,-1,-1,-1],"loss_changes":[4.674949E0,2.6810436E0,3.8277485E0,9.410391E-1,1.0919957E0,4.856227E0,3.5109923E0,0E0,0E0,0E0,0E0,0E0,0E0,0E0,0E0],"parents":[2147483647,0,0,1,1,2,2,3,3,4,4,5,5,6,6],"right_children":[2,4,6,8,10,12,14,-1,-1,-1,-1,-1,-1,-1,-1],"split_conditions":[8E0,6.648456E-1,5.318338E-1,4.902086E-1,6.8210536E-1,1.4E1,5.332074E-1,-6.531099E-2,-3.0306607E-2,3.9134067E-2,-1.02982E-2,-2.0656755E-2,-2.0204003E-3,5.453961E-2,6.0876535E-4],"split_indices":[0,1,1,1,1,0,1,0,0,0,0,0,0,0,0],"split_type":[0,0,0,0,0,0,0,0,0,0,0,0,0,0,0],"sum_hessian":[4.244688E3,6.851189E1,4.1761763E3,4.9089375E1,1.9422514E1,6.8096106E2,3.495215E3,1.0465341E1,3.862403E1,5.3733544E0,1.404916E1,1.955382E2,4.8542285E2,1.1113516E1,3.4841016E3],"tree_param":{"num_deleted":"0","num_feature":"2","num_nodes":"15","size_leaf_vector":"1"}},{"base_weights":[-8.765111E-3,-6.052459E-1,-7.023856E-3,-8.469638E-2,-2.9277182E-1,-6.221062E-1,-5.493449E-3,-8.543329E-3,-4.6127662E-2,-6.819158E-2,-6.3565145E-3,-6.303058E-4,1.0056408E-1],"categories":[],"categories_nodes":[],"categories_segments":[],"categories_sizes":[],"default_left":[0,0,0,0,0,0,0,0,0,0,0,0,0],"id":61,"left_children":[1,3,5,-1,7,9,11,-1,-1,-1,-1,-1,-1],"loss_changes":[4.400992E0,6.8361425E-1,3.9784722E0,0E0,2.0193464E-1,3.0708265E-1,3.4614136E0,0E0,0E0,0E0,0E0,0E0,0E0],"parents":[2147483647,0,0,1,1,2,2,4,4,5,5,6,6],"right_children":[2,4,6,-1,8,10,12,-1,-1,-1,-1,-1,-1],"split_conditions":[6E0,6.091411E-1,2.6743805E-1,-8.469638E-2,6.785526E-1,2.2E1,6.7E1,-8.543329E-3,-4.6127662E-2,-6.819158E-2,-6.3565145E-3,-6.303058E-4,1.0056408E-1],"split_indices":[0,1,1,0,1,0,0,0,0,0,0,0,0],"split_type":[0,0,0,0,0,0,0,0,0,0,0,0,0],"sum_hessian":[4.2404185E3,1.1333827E1,4.2290845E3,5.4259844E0,5.9078426E0,9.489981E0,4.2195947E3,3.3243587E0,2.5834837E0,8.372547E0,1.117434E0,4.2172114E3,2.3829274E0],"tree_param":{"num_deleted":"0","num_feature":"2","num_nodes":"13","size_leaf_vector":"1"}},{"base_weights":[-7.930397E-3,-4.4953067E-2,1.7199483E-2,-5.685452E-2,3.97214E-1,1.53412875E-2,6.5215653E-1,-1.4884687E-2,-1.4732674E-3,2.4472158E-2,7.759592E-2,-4.654229E-2,1.6390368E-3,3.2017253E-2,9.662323E-2],"categories":[],"categories_nodes":[],"categories_segments":[],"categories_sizes":[],"default_left":[0,0,0,0,0,0,0,0,0,0,0,0,0,0,0],"id":62,"left_children":[1,3,5,7,9,11,13,-1,-1,-1,-1,-1,-1,-1,-1],"loss_changes":[3.94365E0,9.041265E0,2.9693618E0,6.4678683E0,2.4116988E0,1.2780179E0,4.5640373E-1,0E0,0E0,0E0,0E0,0E0,0E0,0E0,0E0],"parents":[2147483647,0,0,1,1,2,2,3,3,4,4,5,5,6,6],"right_children":[2,4,6,8,10,12,14,-1,-1,-1,-1,-1,-1,-1,-1],"split_conditions":[1.7E1,7.585528E-1,6E1,5.8231854E-1,7.7920496E-1,2.895597E-1,6.7E1,-1.4884687E-2,-1.4732674E-3,2.4472158E-2,7.759592E-2,-4.654229E-2,1.6390368E-3,3.2017253E-2,9.662323E-2],"split_indices":[0,1,0,1,1,1,0,0,0,0,0,0,0,0,0],"split_type":[0,0,0,0,0,0,0,0,0,0,0,0,0,0,0],"sum_hessian":[4.236943E3,1.7127864E3,2.5241565E3,1.6687416E3,4.404474E1,2.5178123E3,6.34419E0,5.2331335E2,1.1454282E3,3.2575253E1,1.1469487E1,4.518379E0,2.513294E3,4.0658846E0,2.2783055E0],"tree_param":{"num_deleted":"0","num_feature":"2","num_nodes":"15","size_leaf_vector":"1"}},{"base_weights":[-7.128793E-3,-5.8312935E-1,-5.5309096E-3,-8.3365716E-2,-2.7768478E-1,-6.422916E-1,-4.272865E-3,-7.835478E-3,-4.437377E-2,-8.251976E-2,-1.7978556E-2,-1.7039517E-3,5.130615E-3],"categories":[],"categories_nodes":[],"categories_segments":[],"categories_sizes":[],"default_left":[0,0,0,0,0,0,0,0,0,0,0,0,0],"id":63,"left_children":[1,3,5,-1,7,9,11,-1,-1,-1,-1,-1,-1],"loss_changes":[3.8928561E0,6.6389585E-1,3.3797195E0,0E0,1.8938226E-1,5.553932E-1,2.991729E0,0E0,0E0,0E0,0E0,0E0,0E0],"parents":[2147483647,0,0,1,1,2,2,4,4,5,5,6,6],"right_children":[2,4,6,-1,8,10,12,-1,-1,-1,-1,-1,-1],"split_conditions":[6E0,6.091411E-1,2.5809366E-1,-8.3365716E-2,6.785526E-1,1.5E1,2.8E1,-7.835478E-3,-4.437377E-2,-8.251976E-2,-1.7978556E-2,-1.7039517E-3,5.130615E-3],"split_indices":[0,1,1,0,1,0,0,0,0,0,0,0,0],"split_type":[0,0,0,0,0,0,0,0,0,0,0,0,0],"sum_hessian":[4.2321157E3,1.0701022E1,4.221415E3,4.9289446E0,5.772078E0,7.3190556E0,4.2140957E3,3.2921026E0,2.4799752E0,4.6829243E0,2.6361313E0,3.4274863E3,7.8660956E2],"tree_param":{"num_deleted":"0","num_feature":"2","num_nodes":"13","size_leaf_vector":"1"}},{"base_weights":[-6.487636E-3,-5.630296E-1,-5.01112E-3,-8.214928E-2,-2.6292685E-1,-6.2324274E-1,-3.8499946E-3,-7.2792075E-3,-4.252921E-2,-8.1283666E-2,-1.6902141E-2,-2.7300946E-3,2.4217921E-3],"categories":[],"categories_nodes":[],"categories_segments":[],"categories_sizes":[],"default_left":[0,0,0,0,0,0,0,0,0,0,0,0,0],"id":64,"left_children":[1,3,5,-1,7,9,11,-1,-1,-1,-1,-1,-1],"loss_changes":[3.472451E0,6.5129375E-1,3.0261614E0,0E0,1.7416993E-1,5.431781E-1,2.7731223E0,0E0,0E0,0E0,0E0,0E0,0E0],"parents":[2147483647,0,0,1,1,2,2,4,4,5,5,6,6],"right_children":[2,4,6,-1,8,10,12,-1,-1,-1,-1,-1,-1],"split_conditions":[6E0,6.091411E-1,2.5809366E-1,-8.214928E-2,6.785526E-1,1.5E1,6.648456E-1,-7.2792075E-3,-4.252921E-2,-8.1283666E-2,-1.6902141E-2,-2.7300946E-3,2.4217921E-3],"split_indices":[0,1,1,0,1,0,1,0,0,0,0,0,0],"split_type":[0,0,0,0,0,0,0,0,0,0,0,0,0],"sum_hessian":[4.228147E3,1.0181336E1,4.217966E3,4.536719E0,5.644617E0,6.9027376E0,4.211063E3,3.2670834E0,2.3775337E0,4.312969E0,2.5897686E0,2.2942378E3,1.9168253E3],"tree_param":{"num_deleted":"0","num_feature":"2","num_nodes":"13","size_leaf_vector":"1"}},{"base_weights":[-5.9077903E-3,-2.219943E-1,-2.5015965E-3,-3.4003216E-1,6.082266E-2,-3.2107888E-3,9.287307E-2,-6.088375E-2,-2.5741516E-2,3.5581306E-2,-7.5144134E-3,-5.923071E-2,-2.1735548E-4],"categories":[],"categories_nodes":[],"categories_segments":[],"categories_sizes":[],"default_left":[0,0,0,0,0,0,0,0,0,0,0,0,0],"id":65,"left_children":[1,3,5,7,9,11,-1,-1,-1,-1,-1,-1,-1],"loss_changes":[3.1100285E0,2.20968E0,2.7513828E0,8.740568E-1,8.3521074E-1,2.540238E0,0E0,0E0,0E0,0E0,0E0,0E0,0E0],"parents":[2147483647,0,0,1,1,2,2,3,3,4,4,5,5],"right_children":[2,4,6,8,10,12,-1,-1,-1,-1,-1,-1,-1],"split_conditions":[8E0,6.648456E-1,6.7E1,4.902086E-1,6.8210536E-1,2.5809366E-1,9.287307E-2,-6.088375E-2,-2.5741516E-2,3.5581306E-2,-7.5144134E-3,-5.923071E-2,-2.1735548E-4],"split_indices":[0,1,0,1,1,1,0,0,0,0,0,0,0],"split_type":[0,0,0,0,0,0,0,0,0,0,0,0,0],"sum_hessian":[4.2251494E3,6.457204E1,4.1605776E3,4.5415077E1,1.915696E1,4.158407E3,2.1703386E0,9.179374E0,3.6235703E1,5.533877E0,1.3623082E1,6.3069983E0,4.1521E3],"tree_param":{"num_deleted":"0","num_feature":"2","num_nodes":"13","size_leaf_vector":"1"}},{"base_weights":[-5.3351754E-3,-5.3448E-1,-4.0137246E-3,-8.0301784E-2,-2.4377966E-1,-2.11198E-2,3.2825574E-2,7.958253E-7,-3.5090942E-2,-1.9964658E-2,-1.1135277E-3,1.09766405E-2,6.8268366E-4],"categories":[],"categories_nodes":[],"categories_segments":[],"categories_sizes":[],"default_left":[0,0,0,0,0,0,0,0,0,0,0,0,0],"id":66,"left_children":[1,3,5,-1,7,9,11,-1,-1,-1,-1,-1,-1],"loss_changes":[2.9511468E0,6.249938E-1,2.6562965E0,0E0,1.693581E-1,5.1285315E0,2.6730819E0,0E0,0E0,0E0,0E0,0E0,0E0],"parents":[2147483647,0,0,1,1,2,2,4,4,5,5,6,6],"right_children":[2,4,6,-1,8,10,12,-1,-1,-1,-1,-1,-1],"split_conditions":[6E0,6.091411E-1,2.3E1,-8.0301784E-2,6.576719E-1,4.3880132E-1,5.8944917E-1,7.958253E-7,-3.5090942E-2,-1.9964658E-2,-1.1135277E-3,1.09766405E-2,6.8268366E-4],"split_indices":[0,1,0,0,1,1,1,0,0,0,0,0,0],"split_type":[0,0,0,0,0,0,0,0,0,0,0,0,0],"sum_hessian":[4.2225815E3,9.513847E0,4.2130674E3,4.0293407E0,5.4845066E0,2.8773955E3,1.3356721E3,1.9795989E0,3.5049078E0,1.5139548E2,2.726E3,3.3652774E2,9.9914435E2],"tree_param":{"num_deleted":"0","num_feature":"2","num_nodes":"13","size_leaf_vector":"1"}},{"base_weights":[-4.849217E-3,-5.1421E-1,-3.6280607E-3,-7.89805E-2,-2.2922583E-1,-6.577433E-3,2.0280722E-1,-5.097606E-3,-3.9009817E-2,-3.6915187E-3,1.3823555E-3,5.4385126E-2,7.72954E-3],"categories":[],"categories_nodes":[],"categories_segments":[],"categories_sizes":[],"default_left":[0,0,0,0,0,0,0,0,0,0,0,0,0],"id":67,"left_children":[1,3,5,-1,7,9,11,-1,-1,-1,-1,-1,-1],"loss_changes":[2.6236632E0,6.1129713E-1,2.5658033E0,0E0,1.6273671E-1,2.5712557E0,2.4988992E0,0E0,0E0,0E0,0E0,0E0,0E0],"parents":[2147483647,0,0,1,1,2,2,4,4,5,5,6,6],"right_children":[2,4,6,-1,8,10,12,-1,-1,-1,-1,-1,-1],"split_conditions":[6E0,6.091411E-1,4.8E1,-7.89805E-2,6.785526E-1,6.2643594E-1,6.1828285E-1,-5.097606E-3,-3.9009817E-2,-3.6915187E-3,1.3823555E-3,5.4385126E-2,7.72954E-3],"split_indices":[0,1,0,0,1,1,1,0,0,0,0,0,0],"split_type":[0,0,0,0,0,0,0,0,0,0,0,0,0],"sum_hessian":[4.2200464E3,9.088347E0,4.210958E3,3.7197504E0,5.3685966E0,4.152597E3,5.8360653E1,3.1714451E0,2.1971517E0,1.6693472E3,2.4832502E3,1.4803397E1,4.3557255E1],"tree_param":{"num_deleted":"0","num_feature":"2","num_nodes":"13","size_leaf_vector":"1"}},{"base_weights":[-4.390249E-3,-5.036724E-3,8.883874E-2,-1.0213909E-1,7.1647554E-4,-3.920264E-2,-2.581998E-3,-4.4468927E-4,8.14902E-3],"categories":[],"categories_nodes":[],"categories_segments":[],"categories_sizes":[],"default_left":[0,0,0,0,0,0,0,0,0],"id":68,"left_children":[1,3,-1,5,7,-1,-1,-1,-1],"loss_changes":[2.4388936E0,2.3552735E0,0E0,5.207175E0,1.6607219E0,0E0,0E0,0E0,0E0],"parents":[2147483647,0,0,1,1,3,3,4,4],"right_children":[2,4,-1,6,8,-1,-1,-1,-1],"split_conditions":[6.7E1,1E1,8.883874E-2,5.226727E-1,7.585528E-1,-3.920264E-2,-2.581998E-3,-4.4468927E-4,8.14902E-3],"split_indices":[0,0,0,1,1,0,0,0,0],"split_type":[0,0,0,0,0,0,0,0,0],"sum_hessian":[4.216941E3,4.2148833E3,2.0577068E0,2.3482129E2,3.980062E3,4.807574E1,1.8674556E2,3.7418157E3,2.3824634E2],"tree_param":{"num_deleted":"0","num_feature":"2","num_nodes":"9","size_leaf_vector":"1"}},{"base_weights":[-3.9496147E-3,-5.762195E-1,-2.9921252E-3,-7.868312E-2,-1.123087E-1,-4.8791832E-1,-1.885266E-3,-1.5317589E-2,-8.6094387E-4,-6.780251E-2,-1.1584918E-2,-2.8254578E-4,5.6414064E-2],"categories":[],"categories_nodes":[],"categories_segments":[],"categories_sizes":[],"default_left":[0,0,0,0,0,0,0,0,0,0,0,0,0],"id":69,"left_children":[1,3,5,-1,7,9,11,-1,-1,-1,-1,-1,-1],"loss_changes":[2.3079722E0,5.990517E-1,2.2583382E0,0E0,1.2934573E-2,5.992019E-1,2.2370393E0,0E0,0E0,0E0,0E0,0E0,0E0],"parents":[2147483647,0,0,1,1,2,2,4,4,5,5,6,6],"right_children":[2,4,6,-1,8,10,12,-1,-1,-1,-1,-1,-1],"split_conditions":[2.5809366E-1,1.5E1,6E0,-7.868312E-2,2.3458421E-1,6.5581924E-1,6E1,-1.5317589E-2,-8.6094387E-4,-6.780251E-2,-1.1584918E-2,-2.8254578E-4,5.6414064E-2],"split_indices":[1,0,0,0,1,1,0,0,0,0,0,0,0],"split_type":[0,0,0,0,0,0,0,0,0,0,0,0,0],"sum_hessian":[4.2142183E3,6.0356627E0,4.2081826E3,3.6723592E0,2.3633034E0,8.581833E0,4.1996006E3,1.3529847E0,1.0103188E0,5.135544E0,3.4462893E0,4.19363E3,5.9707794E0],"tree_param":{"num_deleted":"0","num_feature":"2","num_nodes":"13","size_leaf_vector":"1"}},{"base_weights":[-3.5887696E-3,-3.0787677E-2,1.4604121E-2,-4.129578E-2,3.3885223E-1,1.3652492E-2,8.381803E-2,-1.15049165E-2,-8.6048956E-4,2.089249E-2,6.49071E-2,5.0636935E-3,1.3073103E-5],"categories":[],"categories_nodes":[],"categories_segments":[],"categories_sizes":[],"default_left":[0,0,0,0,0,0,0,0,0,0,0,0,0],"id":70,"left_children":[1,3,5,7,9,11,-1,-1,-1,-1,-1,-1,-1],"loss_changes":[2.0853627E0,6.5746174E0,1.96779E0,3.9609897E0,1.7506099E0,1.2619702E0,0E0,0E0,0E0,0E0,0E0,0E0,0E0],"parents":[2147483647,0,0,1,1,2,2,3,3,4,4,5,5],"right_children":[2,4,6,8,10,12,-1,-1,-1,-1,-1,-1,-1],"split_conditions":[1.7E1,7.585528E-1,6.7E1,5.8231854E-1,7.7920496E-1,5.9228575E-1,8.381803E-2,-1.15049165E-2,-8.6048956E-4,2.089249E-2,6.49071E-2,5.0636935E-3,1.3073103E-5],"split_indices":[0,1,0,1,1,1,0,0,0,0,0,0,0],"split_type":[0,0,0,0,0,0,0,0,0,0,0,0,0],"sum_hessian":[4.2124204E3,1.6880475E3,2.5243728E3,1.64225E3,4.5797523E1,2.5224749E3,1.8981022E0,5.035898E2,1.1386602E3,3.3457966E1,1.2339554E1,6.7459406E2,1.8478806E3],"tree_param":{"num_deleted":"0","num_feature":"2","num_nodes":"13","size_leaf_vector":"1"}},{"base_weights":[-3.208687E-3,-5.0685996E-1,-2.242105E-3,-5.64927E-1,-9.281671E-3,-4.651353E-1,-1.2286516E-3,-6.571004E-2,-3.1384118E-3,-7.5591855E-2,-1.9504573E-2,-1.7713381E-4,8.102289E-2],"categories":[],"categories_nodes":[],"categories_segments":[],"categories_sizes":[],"default_left":[0,0,0,0,0,0,0,0,0,0,0,0,0],"id":71,"left_children":[1,3,5,7,-1,9,11,-1,-1,-1,-1,-1,-1],"loss_changes":[2.0489554E0,1.4139342E-1,1.9716713E0,3.1742024E-1,0E0,5.736699E-1,1.8491905E0,0E0,0E0,0E0,0E0,0E0,0E0],"parents":[2147483647,0,0,1,1,2,2,3,3,5,5,6,6],"right_children":[2,4,6,8,-1,10,12,-1,-1,-1,-1,-1,-1],"split_conditions":[2.6743805E-1,2.1E1,6E0,2.5809366E-1,-9.281671E-3,6.091411E-1,6.7E1,-6.571004E-2,-3.1384118E-3,-7.5591855E-2,-1.9504573E-2,-1.7713381E-4,8.102289E-2],"split_indices":[1,0,0,1,0,1,0,0,0,0,0,0,0],"split_type":[0,0,0,0,0,0,0,0,0,0,0,0,0],"sum_hessian":[4.210188E3,7.0619755E0,4.203126E3,5.873796E0,1.1881795E0,8.181712E0,4.1949443E3,4.81107E0,1.0627264E0,3.0737205E0,5.107992E0,4.1931377E3,1.8064687E0],"tree_param":{"num_deleted":"0","num_feature":"2","num_nodes":"13","size_leaf_vector":"1"}},{"base_weights":[-2.9145544E-3,-2.3010878E-1,-9.589133E-4,-3.3589363E-1,4.127433E-1,-4.128775E-3,1.3295272E-1,-8.746053E-3,-5.112275E-2,7.5630486E-2,-5.399558E-2,-1.313296E-3,5.979525E-3,5.343836E-2,-5.883404E-4],"categories":[],"categories_nodes":[],"categories_segments":[],"categories_sizes":[],"default_left":[0,0,0,0,0,0,0,0,0,0,0,0,0,0,0],"id":72,"left_children":[1,3,5,7,9,11,13,-1,-1,-1,-1,-1,-1,-1,-1],"loss_changes":[1.8702543E0,2.581612E0,1.7727224E0,1.322994E0,2.2167137E0,2.3487895E0,5.3853197E0,0E0,0E0,0E0,0E0,0E0,0E0,0E0,0E0],"parents":[2147483647,0,0,1,1,2,2,3,3,4,4,5,5,6,6],"right_children":[2,4,6,8,10,12,14,-1,-1,-1,-1,-1,-1,-1,-1],"split_conditions":[3.376112E-1,2.7E1,4.5E1,2.9557604E-1,3.2528645E-1,7.348752E-1,6.1828285E-1,-8.746053E-3,-5.112275E-2,7.5630486E-2,-5.399558E-2,-1.313296E-3,5.979525E-3,5.343836E-2,-5.883404E-4],"split_indices":[1,0,0,1,1,1,1,0,0,0,0,0,0,0,0],"split_type":[0,0,0,0,0,0,0,0,0,0,0,0,0,0,0],"sum_hessian":[4.208839E3,3.4923977E1,4.1739146E3,3.0399128E1,4.524849E0,4.0783442E3,9.5570526E1,1.31978E1,1.7201328E1,3.477089E0,1.0477599E0,3.5755022E3,5.0284213E2,2.3827282E1,7.174325E1],"tree_param":{"num_deleted":"0","num_feature":"2","num_nodes":"15","size_leaf_vector":"1"}},{"base_weights":[-2.6332051E-3,-4.8496085E-1,-1.7462794E-3,-5.54243E-1,-1.2518624E-3,7.935619E-2,-2.2727307E-3,-6.458136E-2,-4.0771505E-3,-4.4438947E-2,-1.3390426E-4],"categories":[],"categories_nodes":[],"categories_segments":[],"categories_sizes":[],"default_left":[0,0,0,0,0,0,0,0,0,0,0],"id":73,"left_children":[1,3,5,7,-1,-1,9,-1,-1,-1,-1],"loss_changes":[1.7990807E0,2.4572337E-1,1.760639E0,2.8911066E-1,0E0,0E0,1.7327541E0,0E0,0E0,0E0,0E0],"parents":[2147483647,0,0,1,1,2,2,3,3,6,6],"right_children":[2,4,6,8,-1,-1,10,-1,-1,-1,-1],"split_conditions":[2.6743805E-1,2.2E1,2.749093E-1,2.5809366E-1,-1.2518624E-3,7.935619E-2,6E0,-6.458136E-2,-4.0771505E-3,-4.4438947E-2,-1.3390426E-4],"split_indices":[1,0,1,1,0,0,0,0,0,0,0],"split_type":[0,0,0,0,0,0,0,0,0,0,0],"sum_hessian":[4.206514E3,6.719151E0,4.1997954E3,5.7088256E0,1.0103257E0,1.7817174E0,4.1980137E3,4.6260867E0,1.0827388E0,7.846013E0,4.1901675E3],"tree_param":{"num_deleted":"0","num_feature":"2","num_nodes":"11","size_leaf_vector":"1"}},{"base_weights":[-2.3840815E-3,-2.889373E-3,7.809683E-2,-2.1386165E-2,1.9024426E-2,-2.9843764E-3,1.5076865E-2,2.0772547E-2,1.2211748E-3],"categories":[],"categories_nodes":[],"categories_segments":[],"categories_sizes":[],"default_left":[0,0,0,0,0,0,0,0,0],"id":74,"left_children":[1,3,-1,5,7,-1,-1,-1,-1],"loss_changes":[1.6673028E0,1.7047777E0,0E0,3.3251896E0,2.4723923E0,0E0,0E0,0E0,0E0],"parents":[2147483647,0,0,1,1,3,3,4,4],"right_children":[2,4,-1,6,8,-1,-1,-1,-1],"split_conditions":[6.7E1,6.648456E-1,7.809683E-2,3.8E1,6.682933E-1,-2.9843764E-3,1.5076865E-2,2.0772547E-2,1.2211748E-3],"split_indices":[0,1,0,0,1,0,0,0,0],"split_type":[0,0,0,0,0,0,0,0,0],"sum_hessian":[4.2055605E3,4.203845E3,1.7153262E0,2.2796685E3,1.9241766E3,2.1737056E3,1.0596286E2,6.602035E1,1.8581564E3],"tree_param":{"num_deleted":"0","num_feature":"2","num_nodes":"9","size_leaf_vector":"1"}},{"base_weights":[-2.126124E-3,-1.6398418E-1,2.6037352E-4,-2.698591E-1,8.95221E-2,-2.198916E-4,7.5610295E-2,-1.0677315E-2,-3.9369673E-2,4.257924E-2,-4.748062E-3,-4.4522375E-2,5.513874E-5],"categories":[],"categories_nodes":[],"categories_segments":[],"categories_sizes":[],"default_left":[0,0,0,0,0,0,0,0,0,0,0,0,0],"id":75,"left_children":[1,3,5,7,9,11,-1,-1,-1,-1,-1,-1,-1],"loss_changes":[1.6239994E0,1.6637747E0,1.5044835E0,8.332825E-1,8.8392794E-1,1.422022E0,0E0,0E0,0E0,0E0,0E0,0E0,0E0],"parents":[2147483647,0,0,1,1,2,2,3,3,4,4,5,5],"right_children":[2,4,6,8,10,12,-1,-1,-1,-1,-1,-1,-1],"split_conditions":[8E0,6.682933E-1,6.7E1,5.75137E-1,6.8210536E-1,2.6743805E-1,7.5610295E-2,-1.0677315E-2,-3.9369673E-2,4.257924E-2,-4.748062E-3,-4.4522375E-2,5.513874E-5],"split_indices":[0,1,0,1,1,1,0,0,0,0,0,0,0],"split_type":[0,0,0,0,0,0,0,0,0,0,0,0,0],"sum_hessian":[4.2031587E3,6.008863E1,4.1430703E3,4.2340813E1,1.7747818E1,4.1414385E3,1.6317762E0,1.9078238E1,2.3262575E1,4.527428E0,1.3220389E1,6.1684732E0,4.13527E3],"tree_param":{"num_deleted":"0","num_feature":"2","num_nodes":"13","size_leaf_vector":"1"}},{"base_weights":[-1.9155726E-3,-7.417821E-2,2.9574556E-3,-1.7651461E-1,6.767089E-2,3.550514E-1,1.7299644E-3,-3.6717802E-2,-1.4368488E-2,1.7166106E-2,-1.6707093E-2,6.945543E-2,-1.3345686E-2,-4.2298E-2,3.1868982E-4],"categories":[],"categories_nodes":[],"categories_segments":[],"categories_sizes":[],"default_left":[0,0,0,0,0,0,0,0,0,0,0,0,0,0,0],"id":76,"left_children":[1,3,5,7,9,11,13,-1,-1,-1,-1,-1,-1,-1,-1],"loss_changes":[1.4802738E0,3.8669767E0,1.7015694E0,9.1461086E-1,2.7631671E0,2.361188E0,2.4305384E0,0E0,0E0,0E0,0E0,0E0,0E0,0E0,0E0],"parents":[2147483647,0,0,1,1,2,2,3,3,4,4,5,5,6,6],"right_children":[2,4,6,8,10,12,14,-1,-1,-1,-1,-1,-1,-1,-1],"split_conditions":[4.5699325E-1,2E1,4.6015823E-1,1E1,4.333676E-1,2E1,4.6341506E-1,-3.6717802E-2,-1.4368488E-2,1.7166106E-2,-1.6707093E-2,6.945543E-2,-1.3345686E-2,-4.2298E-2,3.1868982E-4],"split_indices":[1,0,1,0,1,0,1,0,0,0,0,0,0,0,0],"split_type":[0,0,0,0,0,0,0,0,0,0,0,0,0,0,0],"sum_hessian":[4.2020537E3,2.6456528E2,3.9374883E3,1.535459E2,1.1101938E2,1.2677997E1,3.9248103E3,2.1058908E1,1.32487E2,7.712283E1,3.3896545E1,7.230893E0,5.4471035E0,1.2428619E1,3.9123816E3],"tree_param":{"num_deleted":"0","num_feature":"2","num_nodes":"15","size_leaf_vector":"1"}},{"base_weights":[-1.7499666E-3,-4.1560623E-1,-9.18396E-4,-7.299315E-2,-1.4115465E-1,-1.3644695E-3,7.323678E-2,1.2227642E-2,-2.7843563E-2,-1.5742241E-3,2.1356689E-3],"categories":[],"categories_nodes":[],"categories_segments":[],"categories_sizes":[],"default_left":[0,0,0,0,0,0,0,0,0,0,0],"id":77,"left_children":[1,3,5,-1,7,9,-1,-1,-1,-1,-1],"loss_changes":[1.4457867E0,6.237066E-1,1.3730879E0,0E0,2.415249E-1,1.370156E0,0E0,0E0,0E0,0E0,0E0],"parents":[2147483647,0,0,1,1,2,2,4,4,5,5],"right_children":[2,4,6,-1,8,10,-1,-1,-1,-1,-1],"split_conditions":[6E0,6.091411E-1,6.7E1,-7.299315E-2,6.576719E-1,6.8035775E-1,7.323678E-2,1.2227642E-2,-2.7843563E-2,-1.5742241E-3,2.1356689E-3],"split_indices":[0,1,0,0,1,1,0,0,0,0,0],"split_type":[0,0,0,0,0,0,0,0,0,0,0],"sum_hessian":[4.2011367E3,7.424301E0,4.1937124E3,2.6871493E0,4.737152E0,4.19216E3,1.5520407E0,1.6603581E0,3.076794E0,2.5676675E3,1.6244928E3],"tree_param":{"num_deleted":"0","num_feature":"2","num_nodes":"11","size_leaf_vector":"1"}},{"base_weights":[-1.5816847E-3,-1.391045E-2,2.4731696E-2,-2.0632796E-2,1.3982147E-1,9.402477E-2,1.1133936E-3,-1.485078E-2,-1.3574972E-3,3.2782346E-2,-3.304178E-3,5.4050963E-3,3.3769585E-2,-2.8909415E-2,1.5531878E-3],"categories":[],"categories_nodes":[],"categories_segments":[],"categories_sizes":[],"default_left":[0,0,0,0,0,0,0,0,0,0,0,0,0,0,0],"id":78,"left_children":[1,3,5,7,9,11,13,-1,-1,-1,-1,-1,-1,-1,-1],"loss_changes":[1.3631209E0,2.959712E0,2.1939223E0,2.472831E0,3.910623E0,3.301054E0,4.1923494E0,0E0,0E0,0E0,0E0,0E0,0E0,0E0,0E0],"parents":[2147483647,0,0,1,1,2,2,3,3,4,4,5,5,6,6],"right_children":[2,4,6,8,10,12,14,-1,-1,-1,-1,-1,-1,-1,-1],"split_conditions":[2.3E1,7.585528E-1,5.8944917E-1,4.3880132E-1,1.8E1,5.7660097E-1,6.0282713E-1,-1.485078E-2,-1.3574972E-3,3.2782346E-2,-3.304178E-3,5.4050963E-3,3.3769585E-2,-2.8909415E-2,1.5531878E-3],"split_indices":[0,1,1,1,0,1,1,0,0,0,0,0,0,0,0],"split_type":[0,0,0,0,0,0,0,0,0,0,0,0,0,0,0],"sum_hessian":[4.199766E3,2.8601528E3,1.3396132E3,2.741154E3,1.1899863E2,3.397752E2,9.9983795E2,1.4233107E2,2.598823E3,5.657383E1,6.2424797E1,2.9294064E2,4.683457E1,4.6422405E1,9.534156E2],"tree_param":{"num_deleted":"0","num_feature":"2","num_nodes":"15","size_leaf_vector":"1"}},{"base_weights":[-1.4381615E-3,-4.7838336E-1,-7.871364E-4,-7.2953105E-2,-1.5209232E-3,-1.4662727E-3,4.4341153E-1,-3.9442975E-2,-7.015805E-5,6.81427E-2,4.2092325E-3],"categories":[],"categories_nodes":[],"categories_segments":[],"categories_sizes":[],"default_left":[0,0,0,0,0,0,0,0,0,0,0],"id":79,"left_children":[1,3,5,-1,-1,7,9,-1,-1,-1,-1],"loss_changes":[1.303545E0,6.5459204E-1,1.2660589E0,0E0,0E0,1.2585772E0,5.832888E-1,0E0,0E0,0E0,0E0],"parents":[2147483647,0,0,1,1,2,2,5,5,6,6],"right_children":[2,4,6,-1,-1,8,10,-1,-1,-1,-1],"split_conditions":[2.5809366E-1,1.5E1,6E1,-7.2953105E-2,-1.5209232E-3,6E0,6.4E1,-3.9442975E-2,-7.015805E-5,6.81427E-2,4.2092325E-3],"split_indices":[1,0,0,0,0,0,0,0,0,0,0],"split_type":[0,0,0,0,0,0,0,0,0,0,0],"sum_hessian":[4.198381E3,4.7226477E0,4.193658E3,2.6893358E0,2.0333116E0,4.1882515E3,5.4067283E0,7.1345124E0,4.181117E3,2.9557548E0,2.4509737E0],"tree_param":{"num_deleted":"0","num_feature":"2","num_nodes":"11","size_leaf_vector":"1"}},{"base_weights":[-1.3069967E-3,-1.7241411E-3,7.078885E-2,-4.397891E-2,4.8741675E-3,-7.8353705E-3,4.126539E-3,5.2707124E-4,-6.757878E-2],"categories":[],"categories_nodes":[],"categories_segments":[],"categories_sizes":[],"default_left":[0,0,0,0,0,0,0,0,0],"id":80,"left_children":[1,3,-1,5,7,-1,-1,-1,-1],"loss_changes":[1.2433231E0,1.1704174E0,0E0,1.6646378E0,9.836559E-1,0E0,0E0,0E0,0E0],"parents":[2147483647,0,0,1,1,3,3,4,4],"right_children":[2,4,-1,6,8,-1,-1,-1,-1],"split_conditions":[6.7E1,1.2E1,7.078885E-2,6.8035775E-1,6.3E1,-7.8353705E-3,4.126539E-3,5.2707124E-4,-6.757878E-2],"split_indices":[0,0,0,1,0,0,0,0,0],"split_type":[0,0,0,0,0,0,0,0,0],"sum_hessian":[4.197605E3,4.1961343E3,1.4705713E0,5.659829E2,3.6301514E3,4.033947E2,1.625882E2,3.6290293E3,1.1219674E0],"tree_param":{"num_deleted":"0","num_feature":"2","num_nodes":"9","size_leaf_vector":"1"}},{"base_weights":[-1.1789608E-3,-4.5924482E-1,-5.7559076E-4,-7.139467E-2,-1.4552718E-3,-3.1010837E-3,1.0755004E-1,-7.27422E-4,1.3630986E-2,7.315051E-2,-2.2040063E-3],"categories":[],"categories_nodes":[],"categories_segments":[],"categories_sizes":[],"default_left":[0,0,0,0,0,0,0,0,0,0,0],"id":81,"left_children":[1,3,5,-1,-1,7,9,-1,-1,-1,-1],"loss_changes":[1.1599066E0,6.1490834E-1,1.1453644E0,0E0,0E0,2.3853834E0,7.7569075E0,0E0,0E0,0E0,0E0],"parents":[2147483647,0,0,1,1,2,2,5,5,6,6],"right_children":[2,4,6,-1,-1,8,10,-1,-1,-1,-1],"split_conditions":[2.5809366E-1,1.5E1,7.7920496E-1,-7.139467E-2,-1.4552718E-3,4.3E1,1.8E1,-7.27422E-4,1.3630986E-2,7.315051E-2,-2.2040063E-3],"split_indices":[1,0,1,0,0,0,0,0,0,0,0],"split_type":[0,0,0,0,0,0,0,0,0,0,0],"sum_hessian":[4.19669E3,4.5207205E0,4.192169E3,2.489404E0,2.0313163E0,4.0974365E3,9.4732605E1,3.9792686E3,1.1816785E2,1.5492758E1,7.9239845E1],"tree_param":{"num_deleted":"0","num_feature":"2","num_nodes":"11","size_leaf_vector":"1"}},{"base_weights":[-1.06948E-3,-1.458659E-3,6.828494E-2,-3.724544E-1,-7.621595E-4,-7.042389E-2,-1.0088821E-2,-3.945646E-2,-1.4315298E-5],"categories":[],"categories_nodes":[],"categories_segments":[],"categories_sizes":[],"default_left":[0,0,0,0,0,0,0,0,0],"id":82,"left_children":[1,3,-1,5,7,-1,-1,-1,-1],"loss_changes":[1.117922E0,1.0836834E0,0E0,6.370305E-1,1.0208583E0,0E0,0E0,0E0,0E0],"parents":[2147483647,0,0,1,1,3,3,4,4],"right_children":[2,4,-1,6,8,-1,-1,-1,-1],"split_conditions":[6.7E1,6E0,6.828494E-2,6.091411E-1,2.6743805E-1,-7.042389E-2,-1.0088821E-2,-3.945646E-2,-1.4315298E-5],"split_indices":[0,0,0,1,1,0,0,0,0],"split_type":[0,0,0,0,0,0,0,0,0],"sum_hessian":[4.195336E3,4.1939473E3,1.3886678E0,6.858696E0,4.1870884E3,2.3699605E0,4.4887357E0,5.5724387E0,4.181516E3],"tree_param":{"num_deleted":"0","num_feature":"2","num_nodes":"9","size_leaf_vector":"1"}},{"base_weights":[-9.768803E-4,-1.3439925E-3,6.625167E-2,-1.299323E-1,4.8205393E-4,-2.4736946E-2,6.5245577E-3,-1.771103E-4,9.492291E-3],"categories":[],"categories_nodes":[],"categories_segments":[],"categories_sizes":[],"default_left":[0,0,0,0,0,0,0,0,0],"id":83,"left_children":[1,3,-1,5,7,-1,-1,-1,-1],"loss_changes":[1.0228893E0,9.8496073E-1,0E0,1.3623962E0,8.804261E-1,0E0,0E0,0E0,0E0],"parents":[2147483647,0,0,1,1,3,3,4,4],"right_children":[2,4,-1,6,8,-1,-1,-1,-1],"split_conditions":[6.7E1,8E0,6.625167E-2,6.54047E-1,7.7920496E-1,-2.4736946E-2,6.5245577E-3,-1.771103E-4,9.492291E-3],"split_indices":[0,0,0,1,1,0,0,0,0],"split_type":[0,0,0,0,0,0,0,0,0],"sum_hessian":[4.194801E3,4.1934785E3,1.3222845E0,5.7734283E1,4.135744E3,3.5878838E1,2.1855448E1,4.0403315E3,9.541242E1],"tree_param":{"num_deleted":"0","num_feature":"2","num_nodes":"9","size_leaf_vector":"1"}},{"base_weights":[-8.6839986E-4,-1.7069015E-1,4.920415E-4,-2.6919943E-1,3.450012E-1,3.1591243E-1,-6.519759E-4,2.1775374E-3,-4.720091E-2,6.4355634E-2,-5.3162556E-2,1.4524005E-2,1.2569453E-1,-3.2448914E-2,8.2549166E-5],"categories":[],"categories_nodes":[],"categories_segments":[],"categories_sizes":[],"default_left":[0,0,0,0,0,0,0,0,0,0,0,0,0,0,0],"id":84,"left_children":[1,3,5,7,9,11,13,-1,-1,-1,-1,-1,-1,-1,-1],"loss_changes":[9.6922696E-1,1.7865889E0,1.5022265E0,1.6953762E0,1.8563628E0,2.233745E0,1.9851295E0,0E0,0E0,0E0,0E0,0E0,0E0,0E0,0E0],"parents":[2147483647,0,0,1,1,2,2,3,3,4,4,5,5,6,6],"right_children":[2,4,6,8,10,12,14,-1,-1,-1,-1,-1,-1,-1,-1],"split_conditions":[3.376112E-1,2.7E1,3.545698E-1,2.9557604E-1,3.2528645E-1,3.2E1,3.7237057E-1,2.1775374E-3,-4.720091E-2,6.4355634E-2,-5.3162556E-2,1.4524005E-2,1.2569453E-1,-3.2448914E-2,8.2549166E-5],"split_indices":[1,0,1,1,1,0,1,0,0,0,0,0,0,0,0],"split_type":[0,0,0,0,0,0,0,0,0,0,